117 100
word -0.012008 0.018729 -0.014392 -0.015504 0.015244 0.0078048 0.0069125 -0.0075092 0.031452 0.026117 -0.0082559 0.011936 0.012808 0.018595 -0.013855 0.00032299 0.002444 0.018047 -0.0045762 -0.014616 0.00074882 0.023918 0.0093398 -0.009594 0.0098109 -0.014619 0.0043555 -0.011761 -0.013098 0.026607 -0.016731 0.00074424 -0.021812 -0.020808 -0.032003 -0.0010626 0.0082967 -0.024588 0.0011851 -0.0098705 0.018306 0.034006 0.014088 0.0066107 0.00036483 0.0013017 0.0053889 -0.0064328 -0.013169 0.016519 -0.01853 0.024646 -0.022011 0.0099763 -0.010231 -0.012717 -0.0034889 0.00097298 0.014593 0.0047671 -0.013233 0.015571 0.0224 0.017524 -0.014792 -0.0025729 -0.025684 0.011183 0.014553 0.0062909 -0.024029 0.0091548 -0.0070171 -0.0048962 -0.0041673 -0.0039537 0.028035 0.020625 -0.00060608 -0.01229 -0.0139 0.014513 0.024695 -0.019289 -0.0054693 -0.017997 0.0088551 0.0040228 -0.0091006 -0.012695 0.022383 0.010594 0.023834 -0.02423 0.0019586 -0.033416 0.01049 0.018248 -0.006276 -0.014259 
( -0.011163 0.089603 -0.062 -0.12199 0.066229 0.059377 -0.0058386 -0.057593 0.20076 0.1476 -0.057867 0.10469 0.010044 0.062132 -0.10678 0.028076 0.02041 0.11085 -0.057698 -0.047446 0.011059 0.16736 0.030126 -0.0020164 0.02562 -0.061757 -0.001783 -0.0708 -0.12648 0.125 -0.10086 0.044885 -0.10472 -0.13724 -0.18435 -0.015652 0.037133 -0.13991 0.021381 -0.032652 0.066207 0.26737 0.073356 0.018644 0.054725 0.00808 0.11932 -0.039728 -0.034335 0.1233 -0.085837 0.13716 -0.12575 0.036275 -0.11255 -0.090564 -0.061832 -0.017239 0.15531 -0.010174 -0.057697 0.10389 0.14538 0.12497 -0.11364 -0.041656 -0.2008 0.063151 0.069082 0.00095782 -0.15171 0.12167 -0.0095399 -0.086199 -0.042009 0.0022155 0.17159 0.096694 -0.011986 -0.062401 -0.013011 0.074675 0.13579 -0.082401 0.0081065 -0.10557 0.094357 0.021374 -0.047898 -0.10054 0.10503 0.059969 0.08895 -0.12011 0.0065155 -0.21971 0.030185 0.05873 0.0016374 -0.11256 
) -0.0062624 0.076655 -0.071431 -0.11647 0.060203 0.044206 -0.0079698 -0.068511 0.21486 0.15957 -0.067409 0.10914 0.013074 0.054202 -0.10405 0.040107 0.019582 0.10229 -0.05864 -0.043813 0.023017 0.15147 0.019817 -0.0063158 0.033887 -0.057093 0.013146 -0.079186 -0.13273 0.13441 -0.092894 0.052751 -0.11496 -0.13058 -0.18942 -0.02093 0.036977 -0.13585 0.030741 -0.021666 0.068754 0.26349 0.083561 0.01557 0.049849 0.010793 0.11978 -0.028824 -0.02441 0.12724 -0.086544 0.13879 -0.12285 0.025815 -0.11334 -0.086258 -0.050383 -0.026236 0.13999 -0.011951 -0.047831 0.10889 0.14656 0.1238 -0.12455 -0.034958 -0.19935 0.066191 0.078854 -0.0022604 -0.14603 0.12012 -0.011927 -0.088637 -0.048703 0.0080076 0.1843 0.089936 -0.0094043 -0.07577 -0.0048039 0.077932 0.12617 -0.090294 0.0011891 -0.11589 0.093884 0.040617 -0.03655 -0.11127 0.095656 0.056823 0.093189 -0.12485 0.0004849 -0.22305 0.02863 0.061468 0.014313 -0.09641 
_ 0.0032901 -0.013452 0.013193 0.027582 -0.014355 -0.0059971 -0.0058856 0.015644 -0.050187 -0.0344 0.011221 -0.022713 -0.010721 -0.010756 0.034023 -0.016204 -0.011527 -0.037092 0.022187 0.015662 0.0040711 -0.035707 -0.0071614 0.0028458 -0.016496 0.01956 0.0064119 0.016886 0.026125 -0.040923 0.033405 -0.0078281 0.029639 0.045731 0.047297 0.012064 -0.010313 0.036496 -0.0076591 0.012601 -0.019113 -0.072981 -0.025172 -0.0099541 -0.013613 -0.0066105 -0.024723 0.0095782 0.012287 -0.026591 0.013159 -0.044413 0.037274 -0.014749 0.027551 0.021874 0.014393 0.0080631 -0.037701 0.0037012 0.0075696 -0.025287 -0.035479 -0.040916 0.026536 0.013334 0.055499 -0.025038 -0.022589 -0.0058042 0.051602 -0.030783 0.0044285 0.027379 0.011143 0.0067624 -0.044938 -0.016694 0.012771 0.011228 0.00355 -0.019495 -0.028945 0.028748 0.0084407 0.030887 -0.028885 -0.00097359 0.0023481 0.022198 -0.026634 -0.02217 -0.021623 0.037131 -0.0050937 0.0591 -0.0081319 -0.010594 -0.0055902 0.032068 
" 0.018027 -0.13163 0.11379 0.1837 -0.087426 -0.073385 0.0034279 0.085421 -0.3253 -0.23853 0.092729 -0.18438 -0.029265 -0.094809 0.1724 -0.055477 -0.024501 -0.17204 0.076031 0.085379 -0.017397 -0.2589 -0.047386 0.0056464 -0.05208 0.09447 -0.0041105 0.11731 0.20877 -0.20773 0.16105 -0.083005 0.17099 0.21456 0.2938 0.029539 -0.081144 0.24294 -0.029148 0.049531 -0.12749 -0.42105 -0.11978 -0.015803 -0.06926 -0.019929 -0.18157 0.068359 0.047814 -0.1974 0.13306 -0.2202 0.21211 -0.050792 0.17748 0.15988 0.079187 0.034048 -0.24742 0.021596 0.096899 -0.16141 -0.23079 -0.19098 0.19873 0.067216 0.30896 -0.11989 -0.12748 -0.0068384 0.24395 -0.18911 0.017557 0.13451 0.059225 -0.012107 -0.29127 -0.16292 0.033811 0.10775 0.014198 -0.12827 -0.21544 0.14176 -0.005929 0.17352 -0.15265 -0.044914 0.065015 0.1819 -0.15967 -0.09174 -0.13115 0.19605 0.0071023 0.36601 -0.050229 -0.10118 -0.019775 0.16357 
, 0.010482 -9.2834e-05 0.010188 0.0019838 0.0010258 0.00054683 -0.0080698 0.00060165 -0.020373 0.00044186 0.0036388 -0.0021737 -0.0063909 -0.0056182 -0.00079209 0.0024294 -0.0073902 -0.014227 0.010053 -0.0036052 -0.0080992 -0.0073714 0.0045388 -0.0019476 0.00059254 0.010049 -0.00095302 -0.0022662 -0.001311 -0.014654 -0.0013242 0.0042951 0.0020477 0.006632 0.014957 0.0069368 -0.0097362 0.0031074 -0.0094951 0.01074 -0.010655 -0.015083 -0.0091194 0.0019371 0.0052202 -0.0032588 -0.0091732 -0.0078073 -0.0029997 0.00090678 -0.00019653 -0.016692 -0.0022013 0.0042714 0.010192 0.0078393 0.0049405 0.00044907 -0.0079626 -0.0022708 -0.0047225 -0.010035 -3.7506e-05 -0.010805 0.011833 0.0047865 0.0016596 -0.010305 -0.0097549 0.0070686 0.0070114 -1.9839e-05 0.010787 -0.005602 -0.00088591 -0.0025807 -0.0074562 -0.013831 -0.0055233 0.00079435 0.0065494 0.00037666 -0.0057152 0.015365 0.0064619 0.0050905 -0.014631 -0.00060545 -0.0059742 0.015888 -0.0076885 -0.0050256 -0.01417 0.0094645 0.00057732 0.013175 -0.010511 -0.0046557 -0.0060451 -0.0015776 
; -0.033753 0.2688 -0.21691 -0.37008 0.18451 0.16888 0.0056742 -0.19088 0.65796 0.48079 -0.18231 0.36619 0.03608 0.1787 -0.33144 0.12463 0.053259 0.33549 -0.16399 -0.14454 0.058754 0.51788 0.084624 -0.030693 0.11207 -0.17132 0.018114 -0.22424 -0.40181 0.43294 -0.31529 0.13787 -0.36017 -0.42868 -0.57347 -0.039163 0.14735 -0.46293 0.070161 -0.09536 0.2419 0.84107 0.25697 0.042204 0.15596 0.014927 0.37093 -0.12648 -0.096015 0.37823 -0.26472 0.45314 -0.41792 0.099117 -0.32921 -0.30829 -0.16963 -0.055364 0.48268 -0.029132 -0.18436 0.32873 0.43863 0.36648 -0.38628 -0.1172 -0.63437 0.22546 0.23987 0.031098 -0.5007 0.37866 -0.053377 -0.25995 -0.12666 0.016831 0.56473 0.29167 -0.06993 -0.22111 -0.033163 0.26692 0.43127 -0.27826 0.018266 -0.35649 0.31911 0.10504 -0.12809 -0.34779 0.32412 0.17984 0.26895 -0.3914 -0.016225 -0.7232 0.096248 0.17363 0.03741 -0.34879 
: -0.017634 0.068691 -0.068756 -0.1036 0.059001 0.041564 -0.0037148 -0.049678 0.17709 0.12203 -0.045509 0.087925 0.012422 0.059795 -0.081029 0.029937 0.0095735 0.091576 -0.041972 -0.035103 0.015105 0.13261 0.015392 -0.0042085 0.023915 -0.053128 0.0016636 -0.054593 -0.11239 0.1158 -0.083478 0.047124 -0.085558 -0.11114 -0.16419 -0.0070503 0.0463 -0.13391 0.027048 -0.023403 0.071056 0.22914 0.067716 0.01935 0.044719 0.011003 0.10438 -0.024018 -0.019386 0.1125 -0.078605 0.11902 -0.10475 0.034923 -0.086978 -0.083309 -0.044681 -0.014642 0.13262 -0.014475 -0.050187 0.07815 0.12918 0.091635 -0.10826 -0.040333 -0.16424 0.056659 0.055769 0.00070869 -0.13794 0.10656 -0.021586 -0.06761 -0.025903 0.012755 0.14479 0.086654 -0.021128 -0.061243 -0.013026 0.065096 0.12174 -0.06465 0.0038852 -0.084752 0.082441 0.03106 -0.035893 -0.096096 0.096469 0.045878 0.063555 -0.10886 -0.012386 -0.19681 0.023018 0.037574 0.014842 -0.093469 
. 0.040466 -0.2349 0.20065 0.30482 -0.15216 -0.15015 -0.0029266 0.16375 -0.56751 -0.41234 0.14689 -0.31031 -0.04259 -0.14933 0.28261 -0.10652 -0.045265 -0.2825 0.14869 0.12641 -0.052183 -0.43632 -0.066828 0.01552 -0.094089 0.1466 -0.010504 0.18132 0.35226 -0.35515 0.26518 -0.11658 0.30623 0.36475 0.48468 0.041367 -0.11332 0.40158 -0.058079 0.091802 -0.21834 -0.72193 -0.20462 -0.032236 -0.11891 -0.026331 -0.30529 0.10713 0.07811 -0.31743 0.22574 -0.37609 0.34491 -0.07635 0.28336 0.26791 0.14265 0.040834 -0.40978 0.028905 0.15391 -0.27294 -0.3754 -0.31025 0.32175 0.09847 0.54133 -0.19387 -0.21042 -0.021281 0.42369 -0.33018 0.042852 0.22836 0.11846 -0.0063685 -0.48839 -0.24912 0.062158 0.19515 0.031172 -0.22393 -0.36556 0.22383 -0.00090551 0.30633 -0.26045 -0.082325 0.11672 0.29944 -0.27798 -0.16216 -0.22217 0.33879 0.0036882 0.60781 -0.086052 -0.14138 -0.018001 0.28562 
= -0.0043556 -0.020434 0.018421 0.033511 -0.014998 -0.0051993 0.004619 0.01492 -0.0525 -0.042128 0.0062191 -0.031831 0.0034738 -0.022756 0.016736 -0.015094 -0.0081255 -0.034769 0.014782 0.0070137 -0.008256 -0.040468 -0.0034599 -0.0025023 -0.016772 0.012406 0.0055029 0.0086305 0.035471 -0.037774 0.025368 -0.01804 0.030399 0.026439 0.03801 0.0017581 -0.016072 0.04297 -0.0044332 0.0073038 -0.014989 -0.05523 -0.020492 0.00074611 -0.012118 -0.0012305 -0.022197 0.0068719 0.0060029 -0.029797 0.018452 -0.040848 0.03183 -0.0090836 0.030161 0.027244 0.01573 0.013504 -0.025696 0.0078619 0.0085662 -0.021179 -0.032795 -0.022845 0.024324 0.0022363 0.043104 -0.0073604 -0.021332 0.0030052 0.039969 -0.033155 0.0050185 0.025273 0.009635 0.0046062 -0.044722 -0.020548 0.011597 0.014501 0.011015 -0.02523 -0.025587 0.010421 -0.0076796 0.027675 -0.033144 -0.0023381 0.0085815 0.025773 -0.021219 -0.0059197 -0.0095206 0.023493 -0.008377 0.049681 -0.015737 -0.011466 -0.0072308 0.01522 
- 0.0069461 0.0015442 -0.005867 0.0084991 0.008441 0.00098664 -0.0019905 -0.0011821 -0.0016949 -0.0032797 0.0089415 0.00060052 -0.00023138 -0.00020257 -0.0019184 -0.0028217 -0.0005153 -0.0072859 0.0089698 0.007228 0.0026805 -0.0021173 0.0090464 -0.0095117 -0.0047226 -0.0069928 0.0071212 -0.0028998 -0.0035647 0.00082996 0.010128 -0.0077847 0.00032675 -0.0027012 0.0076858 -0.0079597 -0.00021658 -0.00038409 -0.0013259 -0.0088425 -0.0051543 -0.002068 -0.0093675 -0.0034028 0.0066446 0.010042 -0.0028955 0.0053307 -0.0061042 -8.1588e-05 -0.0089098 -0.0050154 0.0072098 -0.0014297 0.0036723 -0.0070868 0.0015734 0.0093714 0.0064635 0.0007773 0.0065227 0.0051837 0.003043 0.0059105 -0.0034105 0.0097428 0.0049717 0.00056961 -0.0051738 0.0092302 0.0096875 0.0089232 0.0062862 -0.0075257 -0.0024316 -0.0017137 -0.00043325 0.0067909 0.0039355 -0.0048598 -0.0022047 0.0054179 -0.0044269 -0.0024588 0.009632 -0.0060347 -0.0039798 0.00018069 -0.0067252 -0.0020318 -0.0059858 0.003008 0.0058677 -0.0076891 -0.0097852 -0.0083878 0.005594 -0.0034998 -0.0050004 0.0041905 
{ -0.0069745 0.1091 -0.09105 -0.12921 0.067529 0.068637 0.010426 -0.071285 0.24232 0.17829 -0.076616 0.13882 0.024679 0.070721 -0.11828 0.043699 0.021148 0.12114 -0.062408 -0.054839 0.022663 0.2 0.03243 -0.0033904 0.035153 -0.061385 0.0049981 -0.080202 -0.16327 0.16505 -0.11391 0.065202 -0.13692 -0.17416 -0.21903 -0.016729 0.054528 -0.18052 0.02617 -0.034824 0.097216 0.32312 0.10291 0.026188 0.061352 0.0094857 0.137 -0.043879 -0.043442 0.15418 -0.1093 0.17065 -0.15309 0.029457 -0.11842 -0.11188 -0.061774 -0.025851 0.1879 -0.020444 -0.063974 0.12518 0.17817 0.15144 -0.13684 -0.05123 -0.24176 0.088797 0.084551 0.010047 -0.19303 0.14434 -0.0092187 -0.093233 -0.055072 0.0092147 0.21317 0.11148 -0.016314 -0.091819 -0.0081086 0.10263 0.15625 -0.097793 0.010397 -0.12817 0.12768 0.039514 -0.050565 -0.14194 0.12122 0.079061 0.10314 -0.13902 0.001679 -0.27321 0.028439 0.06499 0.0019733 -0.13541 
} -0.013759 0.096307 -0.093513 -0.14408 0.080716 0.063592 -0.0086615 -0.076027 0.25534 0.18066 -0.07214 0.14703 0.027254 0.079773 -0.12181 0.043596 0.020193 0.12609 -0.055438 -0.061859 0.028192 0.19447 0.036235 -0.007942 0.039036 -0.074972 0.015387 -0.077212 -0.14647 0.15778 -0.11681 0.059824 -0.12855 -0.16293 -0.23033 -0.01374 0.063471 -0.18529 0.020246 -0.038599 0.1002 0.31435 0.10565 0.010408 0.064343 0.00029542 0.13804 -0.037138 -0.034595 0.1484 -0.0985 0.16147 -0.15876 0.032348 -0.13125 -0.12258 -0.072204 -0.026129 0.17432 -0.01503 -0.067024 0.12964 0.17665 0.14289 -0.15378 -0.04014 -0.2481 0.084745 0.09694 0.0026387 -0.1846 0.1508 -0.012511 -0.10345 -0.050635 -0.0020041 0.21954 0.12361 -0.023168 -0.076113 -0.013695 0.10088 0.1662 -0.10855 0.0097205 -0.1335 0.12012 0.035747 -0.057544 -0.13217 0.12594 0.061606 0.10222 -0.15797 -0.0070882 -0.28056 0.042678 0.058477 0.011175 -0.13744 
/ -0.015021 0.11926 -0.097555 -0.15807 0.080112 0.081209 0.0040165 -0.092361 0.30779 0.22148 -0.080837 0.16946 0.012003 0.09051 -0.15162 0.059531 0.030534 0.16242 -0.084849 -0.071212 0.020429 0.22775 0.032679 -0.010332 0.055591 -0.076758 0.018742 -0.096742 -0.17703 0.19468 -0.13499 0.068024 -0.16401 -0.20151 -0.25541 -0.01339 0.057014 -0.22175 0.036764 -0.047407 0.1208 0.38275 0.1139 0.026012 0.073927 0.0041343 0.15628 -0.053178 -0.039392 0.17172 -0.12337 0.21127 -0.19671 0.048828 -0.16198 -0.14173 -0.084107 -0.022578 0.20674 -0.0081056 -0.092427 0.14181 0.2069 0.18106 -0.17572 -0.061834 -0.28988 0.10186 0.11464 0.0066394 -0.23419 0.17803 -0.017318 -0.11833 -0.063542 -0.0003214 0.26574 0.12712 -0.035413 -0.10106 -0.012293 0.12251 0.18665 -0.11674 0.0029498 -0.15309 0.14975 0.037574 -0.065331 -0.15335 0.14135 0.089149 0.12841 -0.18422 -0.0063968 -0.32482 0.04241 0.078181 0.023231 -0.15799 
< -0.022805 0.1522 -0.13201 -0.20777 0.1188 0.088657 0.0033361 -0.11632 0.39302 0.28976 -0.11347 0.22307 0.01796 0.10888 -0.19898 0.066065 0.032406 0.20914 -0.10286 -0.079315 0.02384 0.309 0.050471 -0.022234 0.067552 -0.10045 0.02185 -0.1429 -0.23338 0.25747 -0.18816 0.095699 -0.21893 -0.26308 -0.33542 -0.031741 0.085519 -0.27225 0.036043 -0.066359 0.13958 0.50279 0.14516 0.02812 0.086447 0.011306 0.22459 -0.076271 -0.048687 0.23185 -0.16865 0.27286 -0.24853 0.057367 -0.20475 -0.18765 -0.099879 -0.037577 0.28481 -0.011514 -0.11648 0.19449 0.2573 0.23031 -0.21749 -0.080052 -0.37191 0.13237 0.14148 0.015725 -0.3016 0.22102 -0.02453 -0.16213 -0.085187 0.018662 0.34459 0.18657 -0.040337 -0.12127 -0.018747 0.14609 0.25291 -0.1541 0.0042782 -0.21366 0.19055 0.061437 -0.084975 -0.21581 0.20225 0.11305 0.15733 -0.22837 -0.013676 -0.43468 0.055587 0.10708 0.01858 -0.20282 
> -0.013586 0.11381 -0.093727 -0.15258 0.078584 0.071958 -0.0057986 -0.082502 0.25731 0.19779 -0.067109 0.13429 0.020069 0.077552 -0.12348 0.056077 0.019125 0.13471 -0.072713 -0.066561 0.029134 0.19326 0.023628 -0.00096358 0.044043 -0.066931 0.00412 -0.079551 -0.16938 0.16299 -0.11871 0.066644 -0.13148 -0.1776 -0.23681 -0.023781 0.047449 -0.19069 0.02903 -0.028662 0.097568 0.33699 0.1097 0.025273 0.05467 0.00018558 0.14681 -0.037309 -0.036611 0.1606 -0.11133 0.18741 -0.16319 0.035821 -0.12716 -0.11371 -0.069687 -0.030127 0.1959 -0.014425 -0.068656 0.12186 0.17138 0.15362 -0.14524 -0.055213 -0.23913 0.089521 0.089634 0.015006 -0.18895 0.15782 -0.029055 -0.10869 -0.042853 0.0028132 0.22136 0.11042 -0.022323 -0.084355 -0.015439 0.11284 0.17311 -0.10527 0.0022107 -0.14689 0.12817 0.030478 -0.053185 -0.14813 0.11995 0.078706 0.11329 -0.15878 -0.0052513 -0.27846 0.034609 0.067826 0.017279 -0.13214 
* -0.0026854 0.045898 -0.040668 -0.057512 0.034089 0.033505 -0.0061366 -0.034799 0.1155 0.08325 -0.023105 0.064691 0.0022175 0.03486 -0.04942 0.013031 0.010834 0.058499 -0.032953 -0.026642 0.0072864 0.088584 0.023092 0.0022028 0.018782 -0.025985 0.010203 -0.037262 -0.068234 0.073771 -0.040476 0.022462 -0.056657 -0.077849 -0.10364 -0.014136 0.022398 -0.079828 0.020563 -0.016314 0.03277 0.14491 0.046713 0.014526 0.028346 0.011975 0.05843 -0.013698 -0.0083781 0.06151 -0.037726 0.07518 -0.065696 0.0095974 -0.054976 -0.050791 -0.018023 -0.012264 0.075752 -0.0035017 -0.025964 0.042682 0.082013 0.063282 -0.059686 -0.015819 -0.093022 0.037792 0.044366 -0.00063102 -0.084478 0.065551 0.0012296 -0.035723 -0.014798 0.0023537 0.094218 0.045893 -0.0023738 -0.029805 -0.012086 0.043423 0.070873 -0.035758 0.0039231 -0.051112 0.04142 0.0073904 -0.015574 -0.051356 0.060763 0.037 0.052946 -0.053736 0.0019993 -0.12632 0.014863 0.034249 0.010811 -0.057855 
[ 0.0087955 -0.017818 0.0093597 0.01579 -0.0085633 -0.015203 -0.007869 0.012871 -0.019508 -0.027083 0.0046229 -0.010941 -0.0081026 -0.007398 0.0026599 0.0054224 0.0054787 -0.012347 0.0051971 -0.003552 0.0026269 -0.019703 -0.012385 -0.003237 -0.0097608 0.014068 0.0015335 0.00081658 0.013223 -0.011468 0.0072955 -0.0091432 0.01453 0.012647 0.022275 -0.0017753 0.0013608 0.018646 -0.00031682 -0.0026882 -0.0019127 -0.029543 -0.012451 0.0019734 -0.0023408 -0.007746 -0.0080556 -0.00063201 -0.0016155 -0.018907 0.0025493 -0.014096 0.010493 -0.0077079 0.020556 0.0047012 0.010719 0.0041109 -0.020044 -0.00014315 -0.0021702 -0.018589 -0.0090932 -0.0050895 0.010958 0.012082 0.029023 0.0010351 -0.011352 0.0063727 0.01179 -0.0081597 0.0031076 0.010483 0.0055509 -0.0094898 -0.023731 -0.0036332 0.0094655 0.016659 0.011277 -0.012197 -0.018194 0.00068251 0.0034021 0.012702 -0.01038 -0.0057878 0.012176 0.0046697 -0.0035248 -0.013482 -0.0036511 0.018081 0.00075818 0.023349 -0.006412 -0.009001 -0.0059196 0.018413 
] 0.0081575 -0.0029919 0.0020563 0.0067092 -0.0061408 -0.014492 -0.0036502 0.015909 -0.027536 -0.015657 0.0013698 -0.016906 0.0022017 0.00074933 0.019979 0.0018291 -0.0075205 -0.016931 0.0095926 0.0021685 0.00030707 -0.018934 -0.0037457 0.0040574 -0.0074369 0.0044134 0.0064844 -0.00057201 0.017916 -0.025884 0.0087841 -0.013881 0.020491 0.012525 0.01989 -0.0033371 -0.0036099 0.010938 -0.010916 0.0085336 -0.0044163 -0.034346 -0.0093143 -0.0053212 -0.004477 -0.010219 -0.022131 0.013692 0.0024207 -0.02023 0.0024279 -0.0090422 0.0083885 0.0015768 0.005706 0.010758 0.0014242 0.01135 -0.011156 0.010085 0.016228 -0.013519 -0.0098379 -0.0066407 0.01478 0.0077618 0.03175 -0.012716 -0.017378 0.0020711 0.015447 -0.016247 0.005757 0.0092544 0.0049734 0.0014251 -0.01618 -0.011531 0.0034447 0.0063008 0.0069095 -0.019975 -0.012372 0.011562 0.0079861 0.023865 -0.012244 0.0023955 0.010987 0.013926 -0.011898 0.00018662 -0.0020345 0.0069326 -0.0070345 0.026432 -0.0098901 -0.0041065 -0.0042269 0.017687 
' 0.032278 -0.19322 0.16578 0.26044 -0.12347 -0.10707 0.00021539 0.13191 -0.46099 -0.33259 0.12059 -0.2626 -0.029174 -0.12797 0.23101 -0.080687 -0.0432 -0.24296 0.10677 0.094717 -0.030313 -0.35335 -0.049408 0.022446 -0.082597 0.11628 -0.020104 0.1632 0.28473 -0.29436 0.22026 -0.10444 0.25389 0.30875 0.40142 0.031223 -0.10879 0.33461 -0.052018 0.058962 -0.17427 -0.58116 -0.18401 -0.024234 -0.098986 -0.005458 -0.25382 0.074958 0.067352 -0.27794 0.18441 -0.30848 0.2914 -0.068714 0.22921 0.21924 0.12497 0.038255 -0.32792 0.011232 0.11994 -0.22493 -0.32288 -0.26185 0.271 0.083243 0.44247 -0.14764 -0.16598 -0.0056575 0.3378 -0.26622 0.028802 0.17451 0.084556 -0.013177 -0.3896 -0.20372 0.049588 0.15124 0.035823 -0.17936 -0.2986 0.19076 -0.017013 0.25213 -0.22632 -0.0709 0.10168 0.23483 -0.22197 -0.13085 -0.18374 0.26547 0.0024481 0.50186 -0.074562 -0.11628 -0.018069 0.24425 
& -0.005445 0.041414 -0.037179 -0.058063 0.027524 0.033303 0.0059683 -0.031782 0.13221 0.087511 -0.038555 0.068696 0.013263 0.041269 -0.05758 0.027901 0.01303 0.058324 -0.023515 -0.03217 -0.00039585 0.093001 0.022066 -0.003681 0.024566 -0.037673 0.0017213 -0.039069 -0.079327 0.072493 -0.059408 0.024379 -0.07075 -0.0775 -0.11657 -0.01357 0.035714 -0.081718 0.019994 -0.0088661 0.037992 0.15777 0.047652 0.017193 0.033636 0.010283 0.062882 -0.021257 -0.014049 0.080161 -0.046078 0.076907 -0.086306 0.019276 -0.068011 -0.060589 -0.023522 -0.013535 0.084254 0.0011357 -0.043723 0.062101 0.079463 0.075466 -0.079441 -0.026299 -0.11337 0.043779 0.042518 -0.0026129 -0.10175 0.079426 -0.0020208 -0.038603 -0.030438 0.01061 0.11158 0.05519 -0.011898 -0.048479 -0.00067704 0.056183 0.075614 -0.058227 0.0065616 -0.06409 0.055162 0.027452 -0.027111 -0.074097 0.066039 0.04352 0.055934 -0.07089 -0.010554 -0.13909 0.015647 0.023332 -0.0017711 -0.067795 
if -0.00067092 0.032103 -0.023502 -0.040695 0.019162 0.020422 -0.0096311 -0.01454 0.052199 0.037731 -0.018118 0.040961 0.0025531 0.024932 -0.033475 0.015623 0.0098673 0.031976 -0.0048697 -0.019016 0.013167 0.037017 0.017032 -0.0027485 0.0094011 -0.020627 0.0078825 -0.02376 -0.043472 0.039491 -0.018213 0.020833 -0.030966 -0.030232 -0.051404 -0.01346 0.0081713 -0.044595 -0.0025089 -0.0043553 0.027249 0.083865 0.019724 0.00393 0.016523 -0.0059111 0.037108 -0.0076116 -0.0084376 0.025849 -0.026198 0.04661 -0.03328 0.0030784 -0.035536 -0.030974 -0.017677 -0.012809 0.04206 -0.0032704 -0.022612 0.028562 0.044446 0.03477 -0.042958 -0.020843 -0.050543 0.019911 0.027596 0.0053497 -0.053704 0.033103 -0.0043384 -0.022394 -0.01605 0.006326 0.041115 0.029339 -0.0045298 -0.016597 -0.0034303 0.018428 0.040498 -0.031757 0.0045759 -0.022668 0.028122 0.0090219 -0.016552 -0.038013 0.036825 0.011771 0.017708 -0.040269 0.0083307 -0.074002 0.010233 0.017185 0.010789 -0.036596 
+ -0.0088442 0.045199 -0.024328 -0.045078 0.018698 0.030368 0.00038355 -0.024259 0.10235 0.073097 -0.026542 0.047989 0.0067857 0.028773 -0.054001 0.025044 0.014487 0.05562 -0.030394 -0.014821 0.0058484 0.082465 0.0023534 -0.0056629 0.016706 -0.021339 0.0095474 -0.023962 -0.065729 0.056857 -0.037908 0.020342 -0.041023 -0.05946 -0.078449 0.00074074 0.027552 -0.058321 0.0037851 -0.0089674 0.026571 0.12034 0.026328 0.0090289 0.02756 0.0028584 0.061439 -0.021497 -0.019917 0.04684 -0.029636 0.07328 -0.054736 0.022934 -0.05031 -0.05264 -0.028762 -7.4741e-05 0.075857 -0.0017645 -0.02982 0.046235 0.058113 0.059302 -0.050116 -0.026924 -0.079701 0.032687 0.041242 0.0052624 -0.066648 0.050764 -0.014611 -0.044709 -0.016986 -0.0015954 0.080674 0.033695 -0.011239 -0.03255 -0.0086576 0.040867 0.058447 -0.037021 -0.008042 -0.050473 0.054356 0.011133 -0.019771 -0.05736 0.042455 0.01771 0.03761 -0.0639 0.003673 -0.098728 0.014716 0.026018 0.0092889 -0.058133 
return -0.0073558 0.018779 -0.013813 -0.010077 0.0075878 0.017455 -0.0056202 -0.015163 0.037625 0.01716 -0.0106 0.012149 0.0055337 0.019375 -0.024827 0.013927 0.010295 0.0091462 -0.016386 -0.0034768 0.00083595 0.028728 -0.0020841 -0.0006646 -0.0034508 -0.014115 -0.0083305 -0.0080703 -0.018372 0.017419 -0.010279 -0.0021325 -0.01084 -0.015849 -0.022028 -0.01147 0.015109 -0.016772 -0.0017457 -0.0024485 0.0043784 0.034513 0.010503 0.0073474 0.010335 0.0092386 0.024631 -0.0030466 0.0029217 0.009735 -0.0046805 0.027887 -0.024377 0.001135 -0.024515 -0.020888 -0.01275 0.0013447 0.022408 0.0058263 -0.0015804 0.025356 0.018861 0.015002 -0.023745 -0.0090277 -0.039015 0.0091954 0.0051832 -0.0087847 -0.020911 0.02397 -0.0048744 -0.011688 -0.0058478 -0.00029707 0.027306 0.0058501 -0.007485 -0.0050435 -0.00212 0.0077464 0.016451 -0.0061845 0.0070698 -0.0088228 0.016762 0.012325 -0.01268 -0.0088328 0.013821 0.0053551 0.022579 -0.022662 0.0027702 -0.030361 0.014929 0.01464 0.0072324 -0.0098147 
const 0.00014688 0.038761 -0.039729 -0.046634 0.030145 0.023805 -0.0044149 -0.030955 0.090628 0.071916 -0.032232 0.050921 0.004561 0.026534 -0.041784 0.023722 0.003743 0.050678 -0.017791 -0.01897 0.010287 0.069653 0.011876 -0.0073159 0.021756 -0.024905 0.0091319 -0.033433 -0.060644 0.066446 -0.043446 0.019273 -0.044097 -0.050417 -0.08137 -0.00099932 0.021196 -0.062892 0.0067052 -0.010393 0.030946 0.10541 0.036967 0.00019145 0.015963 -0.0065926 0.042492 -0.019279 -0.019907 0.052194 -0.028313 0.05555 -0.049423 0.0047916 -0.040698 -0.0331 -0.012848 -0.011764 0.072612 -0.0072002 -0.020962 0.04029 0.057105 0.058684 -0.055408 -0.014094 -0.077377 0.027083 0.041668 0.012438 -0.072894 0.0563 -0.0092342 -0.030479 -0.025083 -0.0075209 0.0703 0.046368 -0.0082322 -0.025306 -0.0088813 0.032318 0.049583 -0.042979 -0.00039725 -0.040147 0.045116 0.018117 -0.02315 -0.042502 0.053694 0.026023 0.036523 -0.055853 0.0047571 -0.10584 0.0096785 0.015323 0.0042959 -0.040494 
# -0.0014453 0.034809 -0.030346 -0.046401 0.020904 0.015711 -0.0076339 -0.03072 0.10599 0.064943 -0.03245 0.0627 -0.0011926 0.019055 -0.057176 0.026243 0.010915 0.042813 -0.032602 -0.014855 0.0092789 0.077118 0.01157 -0.0067802 0.019633 -0.024113 0.0067788 -0.042983 -0.066999 0.0629 -0.037509 0.018099 -0.060824 -0.070162 -0.095549 -0.011146 0.012908 -0.078815 0.013802 -0.012748 0.029659 0.12895 0.040533 0.0055937 0.012713 0.010026 0.049542 -0.025946 -0.01925 0.050691 -0.044533 0.062925 -0.052385 0.022853 -0.046663 -0.037181 -0.031778 -0.0091097 0.071622 -0.0028275 -0.020511 0.038318 0.06688 0.058115 -0.066517 -0.027953 -0.08505 0.036409 0.038442 -0.0010587 -0.081662 0.060525 -0.0068057 -0.031136 -0.015811 0.0049447 0.084472 0.049445 -0.012106 -0.032814 -0.00972 0.031028 0.062652 -0.040364 -0.0040289 -0.046869 0.042331 0.012788 -0.027567 -0.060507 0.039427 0.020486 0.03153 -0.054223 -0.00081148 -0.11586 0.0094478 0.025911 -0.0027686 -0.051633 
\ -0.0030666 0.027284 -0.021638 -0.029095 0.023127 0.021752 -0.00063352 -0.02619 0.069315 0.052871 -0.0156 0.039064 0.0016541 0.015695 -0.033231 0.0052352 0.00067623 0.045139 -0.015192 -0.019215 0.0028595 0.049477 0.0021498 0.0062972 0.0042037 -0.024075 -0.0035213 -0.033195 -0.043715 0.037209 -0.04167 0.016336 -0.029856 -0.038977 -0.066036 -0.0038938 0.01537 -0.050532 0.0070313 -0.0037955 0.02403 0.09475 0.022165 0.01109 0.0060806 0.00084815 0.039197 -0.0073158 9.0463e-05 0.049234 -0.037435 0.049964 -0.042233 0.016634 -0.028839 -0.040098 -0.017363 -0.014302 0.056561 -0.0036486 -0.013039 0.028939 0.055864 0.038286 -0.032463 -0.015787 -0.06698 0.031652 0.019835 0.0037058 -0.061182 0.030209 0.0033203 -0.027795 -0.012273 0.0047752 0.067735 0.02188 0.0029833 -0.019885 -0.0055572 0.029141 0.053115 -0.026482 0.0045054 -0.037301 0.04098 0.016319 -0.01945 -0.038901 0.038235 0.010433 0.037185 -0.032764 -0.0018021 -0.083826 0.011427 0.01972 -0.0010694 -0.028943 
! -0.0076161 0.0046116 -0.013172 -0.016463 0.017926 0.016069 0.0077189 -0.0084198 0.033856 0.032798 -0.012191 0.022792 -0.0052912 0.00706 -0.025172 -0.0027483 0.0032845 0.0073565 -0.00703 -0.012257 -0.00040439 0.028401 0.008045 -0.0015093 0.0097115 -0.0029285 -0.0019833 -0.0092463 -0.021895 0.029485 -0.016277 0.015259 -0.026334 -0.026149 -0.019808 -0.0065392 -0.00011489 -0.028484 0.010261 -0.012253 0.0034472 0.039973 0.0095638 0.0099254 0.0080693 -0.0012251 0.011579 -0.011954 0.0026182 0.023552 -0.0041621 0.014542 -0.01804 0.0093418 -0.024865 -0.022572 -0.016524 -0.0016923 0.016137 0.0083258 0.00077355 0.024544 0.018613 0.0093037 -0.019889 -0.0029134 -0.031766 0.0042502 0.002427 0.0097378 -0.014457 0.012362 -0.011057 -0.014363 -0.0096654 0.010509 0.035834 0.0081517 -0.012324 -0.0037911 0.0071145 0.021601 0.028596 -0.0041356 0.004641 -0.017071 0.006816 0.0025927 0.0025134 -0.024811 0.010978 0.0075224 0.016016 -0.0098424 0.0053219 -0.032657 -0.0049901 0.011563 0.004509 -0.023322 
for -0.0028709 0.010973 0.0071287 0.0038423 -0.0023916 -0.0052828 -0.0020211 0.0058955 -0.0018264 0.0040499 -0.0025681 0.0043162 0.0015577 -0.0034266 0.0039057 0.0046314 0.0074706 -0.00017028 -0.00078055 9.4968e-05 0.0022269 0.0060732 -0.0040223 -0.0019801 0.0012061 -0.0062064 0.005222 0.001903 -0.0016087 0.0056556 -0.0010933 0.0013246 0.0075241 0.0026378 0.0012401 -0.0070109 -0.0016705 -0.0068371 0.0010144 -0.010143 0.0088269 0.0098305 -0.00047075 -0.0026975 -0.003939 -3.5267e-05 0.0090004 -0.0012665 0.0035777 0.0041495 0.0065216 -0.00552 0.0074044 0.0069625 -0.0056884 0.0059213 -0.0062718 -0.0084604 0.0044267 0.00098649 0.0037636 0.0034544 -0.0077348 0.010866 0.006532 -0.0078369 -0.0078095 0.0060082 -0.0044585 -0.0061878 0.0027485 0.011295 -0.0086472 0.0038566 -0.0050792 -0.0010985 0.01135 0.0086035 -0.0064686 0.0049186 -0.0074609 -0.0052571 0.0012791 0.0029994 0.0037023 -0.0020303 0.0038479 0.00081783 -0.0094937 0.0082185 0.0011891 0.0005181 0.0097426 0.0027325 -0.0082118 0.0042912 -0.0088306 -0.0086924 0.0067803 -0.010573 
int -0.0072989 0.043069 -0.035505 -0.053121 0.020621 0.027601 0.0020797 -0.022767 0.083017 0.063845 -0.019128 0.052484 -0.0020469 0.027086 -0.034093 0.0087093 0.0028178 0.041946 -0.01696 -0.019596 -0.0013498 0.066464 0.015011 0.0021974 0.014119 -0.024972 0.012107 -0.028092 -0.050774 0.061357 -0.04627 0.028626 -0.04425 -0.059924 -0.064632 -0.0033708 0.01507 -0.05891 0.012937 -0.01532 0.036155 0.11021 0.033927 0.014284 0.020292 -0.0027086 0.040822 -0.010366 -0.016347 0.045395 -0.029904 0.060774 -0.05677 0.010617 -0.049316 -0.038717 -0.029845 -0.00497 0.056114 0.0035868 -0.020017 0.033812 0.060838 0.046662 -0.057418 -0.0098635 -0.073581 0.020404 0.029486 0.0064861 -0.058629 0.038462 -0.011822 -0.029913 -0.012414 -0.0026447 0.066086 0.047061 -0.015552 -0.036525 -0.0097448 0.03744 0.055536 -0.032932 0.0080531 -0.044537 0.04879 0.018547 -0.012998 -0.053622 0.050105 0.022659 0.033002 -0.042638 -0.0060373 -0.080776 0.018404 0.013288 0.009187 -0.038758 
is -0.0020912 -0.020395 0.015823 0.0091884 -0.013302 -0.015537 -0.0060215 0.0038608 -0.034228 -0.013981 0.0093401 -0.022994 0.0066973 -0.0046199 0.018808 -0.013939 -0.0078463 -0.0076657 -0.0020418 0.014191 -0.0020734 -0.012522 -0.0079704 -0.0060596 -0.0015253 0.0082574 -0.0041021 0.011502 0.02285 -0.016741 0.0029998 0.00087796 0.017596 0.024437 0.032425 0.0025333 -0.0032877 0.023272 0.0049552 0.012013 -0.013418 -0.031254 -0.017533 -0.0056122 -0.0067167 -0.0057894 -0.011551 0.0088297 0.012898 -0.019053 0.018285 -0.022988 0.016444 -0.0079656 0.0081821 0.016449 0.0034999 0.0047353 -0.011318 0.0068028 0.015031 -0.01082 -0.020203 -0.019128 0.021006 0.010654 0.032607 -0.0084628 -0.016522 -0.0058803 0.023203 -0.016445 0.0072888 0.010624 0.0057511 -0.00047008 -0.019624 -0.019319 0.012089 -0.00044521 -0.0055224 -0.017075 -0.01306 0.0068382 0.0076308 0.011335 -0.0208 -0.0018888 -0.0008959 0.0074081 -0.01717 -0.013706 -0.0043203 0.007149 -0.0039651 0.037529 -0.007771 -0.015125 -0.0056908 0.00349 
else -0.0072122 -0.0020204 -0.010327 -0.011882 -0.0039656 -0.0025101 0.0053596 -0.0011516 0.026475 0.0090489 -0.008337 0.0094903 -0.0041116 -0.00095257 -0.014145 -0.0025227 -0.0073689 0.0091532 -0.011339 -0.008469 -0.0057949 0.0067374 -0.005258 0.0046538 0.0029568 -0.0098892 0.0062806 -0.0084122 -0.013174 0.020418 -0.00036719 -0.00061058 -0.010329 -0.017906 -0.019864 0.0010292 -0.0022303 -0.019689 0.0060813 0.0062386 0.0080532 0.018348 0.016331 -0.0050597 0.0074705 -0.0017385 0.013295 -0.012708 -0.0069219 0.0020879 0.001715 0.013499 -0.011803 -0.0057882 -0.010882 -0.0097696 -0.0048459 0.0025929 0.01906 -0.001681 -0.014787 0.0080421 0.007128 0.013173 -0.019668 -0.00027542 -0.021964 0.013413 -0.0026566 -0.0073116 -0.014908 0.01999 0.0072778 -0.0070971 -0.00070965 -0.0062522 0.014129 0.0067243 0.00034082 -0.013259 0.0071675 0.010614 0.0047189 0.00091379 0.0041987 -0.0035444 0.0034168 0.0081727 -0.013666 -0.0029106 0.013824 -0.0010452 0.0059193 -0.020537 -0.0042683 -0.011278 -0.0016549 0.014376 -0.0085071 0.00013611 
char 0.0052728 0.0051023 -0.015059 -0.0055883 0.014118 0.0089982 0.0032944 -0.012135 0.015213 0.010074 -0.0051524 0.018277 -0.0069677 0.0030432 -0.019307 0.010574 -0.007233 0.015339 6.0549e-06 0.0043157 0.0051529 0.025303 -0.0010464 -0.0097701 -0.0030628 -0.0025481 0.0095359 -0.0023281 -0.0042837 0.015984 -0.0013684 0.011052 -0.01079 -0.018802 -0.019319 0.0024047 0.0087757 -0.015657 0.0053303 -0.0099857 0.0099369 0.031672 0.0073574 0.0080609 -0.0036155 -0.0073838 0.0087321 -0.008821 -0.0069421 0.0040769 -0.0086 0.015966 -0.020075 -0.00010817 -0.0049161 -0.020233 -0.0089158 0.0079679 0.014948 0.0017801 0.00054931 0.0065796 0.018838 0.010954 -0.0078813 -0.0013088 -0.027152 0.0085169 0.015806 -0.0023252 -0.0088467 0.01637 0.0069087 -0.0036057 -0.013935 -0.0084465 0.028179 0.014367 0.0049181 -0.0018008 -0.004209 0.0096086 0.020186 -0.0019995 -0.00528 -0.0070173 0.012464 0.0020476 0.0020632 -0.010589 0.0012888 -0.0028321 0.0022729 -0.022173 0.0029874 -0.028837 0.0034728 0.00034777 0.0049608 -0.013705 
| -0.00057465 0.0017703 0.00029659 -0.0054779 0.0082567 0.0043682 0.0064244 -0.011102 0.0043898 0.011533 0.004748 0.0056241 -0.0028697 0.0043455 0.0040466 0.0022141 -0.0069073 0.0004134 -0.0092553 -0.007345 0.0075303 0.013121 -0.0018684 -0.0058861 0.0067668 0.0020453 -0.0039765 -0.011824 -0.0019832 0.010879 0.0018372 0.0064631 -0.013769 -0.0020312 -0.015728 -0.0088946 -0.0047537 0.0019038 0.0040037 -0.011506 -0.0011984 0.0079871 0.0057797 0.0041403 -0.002392 0.0029262 0.010552 0.0050935 -0.0011173 0.0066293 0.0053036 0.0045566 -0.010353 0.0014291 -0.012924 0.0014618 -0.0074732 -0.0052721 0.014987 0.0081267 -0.011721 0.0022554 0.0069721 0.0092905 -0.010528 -0.0033159 -0.0051687 0.00526 -0.0053743 0.0037417 -0.01535 0.0024493 0.0086088 -0.0016387 -0.009104 -0.0057639 0.012165 -0.003147 0.0086703 -0.013676 0.00055318 -0.0021151 0.0050749 -0.013893 -0.0058846 -0.013579 0.0018438 0.0035572 0.0051798 -0.010824 -0.0015828 -0.0014121 0.011948 -0.0035547 -0.0041338 -0.01729 -0.0032907 0.011819 -0.0070987 -0.0094255 
false 0.0069348 0.002331 -0.0081593 -0.016401 0.014865 0.0022448 3.9261e-06 0.0013938 0.02134 0.012184 0.0030693 0.020037 0.0092385 0.0019755 -0.009689 0.012123 0.010319 0.0064949 0.00090413 -0.0094748 0.0038509 0.016346 0.0045034 0.001113 -0.0046385 -0.0044957 -8.3551e-05 -0.0086971 -0.0044256 0.018197 -0.015267 0.007661 -0.021531 -0.0067615 -0.018175 -0.00084244 0.0085009 -0.021557 -0.0046292 0.0063931 0.012501 0.029596 0.016097 -0.0064385 -0.0015697 0.006819 0.018715 -0.0031608 -0.0093903 0.018989 -0.0086259 0.011805 -0.019303 0.0055502 -0.019823 -0.014292 -0.0013655 0.0063028 0.018129 0.0060009 -0.0082082 0.015482 0.011571 0.011553 -0.0080902 -0.0024675 -0.027388 0.015488 0.016201 0.00033583 -0.024147 0.0029433 0.0029161 -0.011661 -0.0058546 -0.0093308 0.010886 0.019344 0.0054897 -0.0036195 -0.00064819 0.00077235 0.0096759 -0.011958 0.0062872 -0.0060213 0.010125 0.0072082 -0.0082035 -0.012022 0.0010663 0.0018115 0.010215 -0.014122 0.0022801 -0.02874 -0.0020507 0.0079343 -0.0061021 -0.012421 
in 0.0093159 -0.022467 0.018763 0.021015 -0.0088154 -0.0015876 -0.0018223 0.015799 -0.042673 -0.026898 0.0058768 -0.022032 0.00085616 -0.0037322 0.025595 0.0012623 0.0020238 -0.02932 0.0064671 0.016051 -0.0044723 -0.041407 -0.009738 0.0062477 -0.00026286 0.0064613 -0.0079449 0.011176 0.029628 -0.028191 0.024977 -0.016666 0.025081 0.03551 0.030795 -0.0033877 -0.001207 0.031863 -0.0098011 -0.0024771 -0.024024 -0.044804 -0.020286 -0.0084421 -0.0029518 -0.0095626 -0.031478 0.0027133 0.014754 -0.017608 0.022658 -0.019646 0.028384 -0.0093002 0.012945 0.024826 0.003682 0.008925 -0.037344 0.00079381 0.010784 -0.024674 -0.023924 -0.025674 0.018018 -0.00090775 0.047741 -0.0060214 -0.019304 -0.005275 0.026298 -0.033425 0.0061721 0.014775 0.018047 0.0089653 -0.029338 -0.022503 0.0088099 0.015594 0.0074562 -0.024322 -0.033455 0.021481 -0.0075756 0.027027 -0.011011 -0.002984 0.011789 0.021038 -0.026131 -0.01417 -0.0079155 0.022969 0.0060376 0.051102 -0.01245 -0.0054956 -0.0086877 0.013928 
bool 0.0042862 -0.00032107 0.001504 -0.015628 0.013777 0.013767 -0.0044011 0.0011726 0.024151 0.02369 0.00022784 0.007912 0.0018216 0.0031466 -0.013968 0.0082096 0.0080074 0.00044433 -0.013077 0.0024805 -0.0039283 0.0090934 0.0086816 -0.006974 0.0025569 -0.010187 0.0026262 -0.0081024 -0.019645 0.015378 -0.0038152 0.0068415 -0.0157 -0.014456 -0.015459 0.0014178 -0.003261 -0.021986 -0.002625 -0.00079638 0.0052941 0.016877 0.0054647 -0.0046397 0.0018247 0.010053 0.014236 -0.0047932 0.0051081 0.020153 0.0021265 0.020494 -0.017265 0.0098062 -0.0076736 -0.011643 -0.01165 -0.0016415 0.010478 -0.010489 -0.0012712 0.012184 0.02171 0.0010516 -0.0031237 -0.011458 -0.026867 0.010727 0.0070292 -0.0082485 -0.011894 0.0087348 -0.0098341 -0.001483 -0.002849 0.0076548 0.013691 0.0011311 0.0018405 0.0028885 0.0070616 0.015423 0.011632 -0.0168 -0.0039796 -0.018667 0.018333 -0.0052526 -0.0060966 -0.013157 0.010465 -0.0030796 0.0031833 -0.0076617 0.0023172 -0.022495 0.010659 0.0010339 -0.0083634 -0.0037657 
auto -5.9689e-05 0.01632 -0.0043899 -0.017298 0.0017979 0.016313 0.0030395 -0.0050134 0.023929 0.021457 -0.00821 0.022043 -0.0080682 0.010998 -0.023229 0.011281 0.009704 0.01061 -0.010441 -0.012421 0.0097781 0.026939 -0.0018999 0.0012299 0.013155 -0.0074237 -0.0075875 -0.013977 -0.016887 0.010406 -0.012307 1.5681e-05 -0.014905 -0.022113 -0.029576 -0.0035165 0.012209 -0.01465 -0.0037662 -0.0045425 0.016092 0.041902 0.0091063 0.0099114 0.011468 0.0072442 0.0066663 -0.011258 -0.01242 0.016897 -0.0061307 0.0088702 -0.023993 0.0050652 -0.012699 -0.016661 -0.013343 -0.00030653 0.025594 0.0033415 -0.0022848 0.022622 0.021915 0.016622 -0.010229 -0.005022 -0.02212 0.0056502 0.016373 -0.0029947 -0.020915 0.010708 -0.0089497 -0.0044377 -0.0063431 0.0074038 0.029725 0.0059017 0.0019038 -0.0081073 -0.010685 0.0029075 0.011589 -0.017828 0.0058936 -0.01613 0.021673 -0.00026091 -0.011616 -0.010468 0.0054434 0.00778 0.012848 -0.017108 0.0026042 -0.033599 0.0016216 0.016569 0.0089603 -0.011285 
from 0.0086804 -0.054712 0.038656 0.066529 -0.037861 -0.032019 -0.00061754 0.035534 -0.13196 -0.10448 0.043341 -0.067746 -0.010095 -0.033204 0.058852 -0.030126 -0.020175 -0.079073 0.034133 0.037577 -0.0026621 -0.10484 -0.0086373 0.0016772 -0.02475 0.026497 -0.0066703 0.047706 0.082956 -0.081978 0.056623 -0.022932 0.064962 0.093058 0.11665 0.0047837 -0.026861 0.098791 -0.022443 0.025027 -0.052135 -0.18203 -0.04691 -0.011838 -0.033208 -0.0096591 -0.071221 0.023719 0.020295 -0.070691 0.051428 -0.097789 0.094737 -0.030195 0.059564 0.058466 0.036882 0.017804 -0.108 0.0031189 0.042389 -0.062009 -0.093359 -0.08198 0.075242 0.034468 0.12785 -0.047281 -0.046133 -0.0059083 0.10782 -0.068656 0.0094102 0.058733 0.021718 -0.0059722 -0.11453 -0.065337 0.0082351 0.035484 0.014441 -0.050483 -0.084041 0.05048 0.0021971 0.074837 -0.063388 -0.029826 0.0262 0.075235 -0.062294 -0.041726 -0.046354 0.079889 -0.0008332 0.14958 -0.027777 -0.033867 -0.0092624 0.061813 
this -0.0043437 -0.0028834 0.0050184 -0.0055338 0.0070729 0.0045985 -0.0046943 -0.0014663 -0.0014116 0.0065524 0.0092287 0.0073004 -0.00794 -0.0044023 0.0085521 -0.0056103 -0.001046 0.0025028 -0.0044078 -0.0049621 0.0085649 -0.0063135 0.0016911 -0.0076262 0.0004147 0.005677 0.0064253 0.010523 -0.0013511 0.0083516 0.004778 0.0091915 -0.0042804 0.010747 0.005334 0.0015434 0.008543 0.0077099 -0.0073091 -0.0089913 -0.0044098 0.0041829 -0.0080607 -0.0019764 0.0069565 -0.00061618 0.00099085 0.0046085 0.00086557 -0.0016723 -0.0055895 0.0033904 -0.0010944 -0.0034072 0.0048217 0.0053904 0.010542 -0.005058 0.0079854 -0.0020809 -0.0090727 0.0041125 0.0029696 0.0013202 0.0086801 -0.005524 0.0006484 0.0046491 0.0070816 -0.0083232 0.0022885 -0.0072983 -0.0036711 -0.0014477 -0.0047735 -0.0090921 -0.01098 0.0039215 0.00076297 0.0060897 0.0034041 0.0045712 -0.0045044 -0.0067518 0.0081534 -0.0046009 0.0071072 0.0052215 -0.0072077 0.0042358 -0.010228 0.0020274 -0.0041399 0.00904 -0.0049792 -0.0069583 -0.0023508 -0.0019633 0.0089642 0.0047458 
def 0.01744 -0.054825 0.044158 0.075809 -0.034954 -0.027999 0.0024313 0.041139 -0.12164 -0.097853 0.039651 -0.064734 -0.01576 -0.030841 0.057337 -0.01862 -0.013645 -0.06067 0.033821 0.038726 -0.0079305 -0.093736 -0.0151 0.0014051 -0.029933 0.041185 -0.014345 0.045826 0.081575 -0.079673 0.053563 -0.0202 0.066746 0.084466 0.11144 0.0038193 -0.024866 0.082035 -0.014116 0.026332 -0.05437 -0.17154 -0.040339 -0.0056696 -0.03904 -0.0079046 -0.076722 0.024111 0.010479 -0.073134 0.057498 -0.09587 0.086126 -0.015869 0.065094 0.050198 0.029543 0.014871 -0.098322 0.0084131 0.038078 -0.059529 -0.092534 -0.081628 0.066699 0.021683 0.11864 -0.03943 -0.040793 0.0028536 0.09831 -0.068292 0.012364 0.055573 0.01539 -0.012285 -0.10098 -0.049637 0.013561 0.044635 -0.0018138 -0.055865 -0.089501 0.056607 -0.0038746 0.078711 -0.054978 -0.027217 0.028026 0.062441 -0.064841 -0.043641 -0.056632 0.071128 0.0068146 0.13244 -0.024657 -0.034853 -0.0030296 0.074271 
true -0.0010174 0.0081545 -0.0075947 -0.014779 0.013917 -0.0019233 0.0031248 0.0020773 0.013625 0.010982 -0.014811 0.019425 0.0029735 -0.0037343 -0.00081561 -0.0056858 -0.0041626 0.00072349 0.0011635 0.0010281 0.0086042 0.016373 0.0057695 0.0080825 0.0050162 -0.0089912 0.0033664 -0.010128 -0.0054749 0.0047455 0.00054468 0.0092991 -0.010809 -0.0092049 -0.021579 -0.0039144 0.0041659 -0.018194 0.0034264 -0.00028908 0.0090398 0.022022 0.0061924 -0.0052073 0.0080822 0.0017051 0.013402 -0.010288 0.0070066 0.019474 -0.016407 0.014752 -0.017598 -0.0040313 -0.0043646 -0.019229 -0.0031152 0.005729 0.013989 -0.0014263 -0.0052206 0.0020027 0.023417 0.0041263 -0.010803 0.00015471 -0.016125 -0.00060927 0.014307 -0.0065348 -0.022161 0.0032908 -0.0015345 0.00016928 -0.013815 0.0015166 0.015168 0.014785 -0.0078839 -0.00041496 0.0046651 0.0016467 0.0093932 -0.0084023 -0.0051386 -0.017631 0.0043732 0.00021744 -0.011822 -0.0053145 0.0112 -0.0016386 0.015186 -0.019459 -0.0044585 -0.018931 -0.00010063 -0.002991 -0.0080577 -0.011564 
void -0.010801 0.013244 -0.0028456 -0.014349 0.010735 0.016099 -0.0046928 -0.012373 0.039875 0.021413 -0.0036208 0.015669 0.0078418 0.0078705 -0.024475 0.011197 0.00066166 0.0064287 -0.00091405 -0.0062038 1.6756e-05 0.032438 0.010634 -0.0059413 -0.0035512 -0.00011886 0.0092122 -0.007346 -0.027876 0.016994 -0.0065751 0.012295 -0.022122 -0.02826 -0.025642 -0.0020666 0.013628 -0.022785 0.0068679 -0.01243 0.010303 0.034092 0.0064767 -0.0038689 0.011741 -0.0064168 0.026508 -0.00089451 -0.012946 0.016086 -0.017924 0.015422 -0.020109 0.013523 -0.015481 -0.011739 -0.016081 -0.011208 0.029427 -0.011177 -0.017505 0.011061 0.015401 0.021245 -0.025683 -0.0054435 -0.031765 0.0075609 0.015805 -0.0052318 -0.01376 0.018034 0.0014737 -0.008949 -0.014071 -0.0082397 0.023591 0.0050571 0.0038455 -0.006996 0.005803 0.020727 0.025996 -0.02017 -0.0067914 -0.014207 0.0059491 0.0065372 -0.0062083 -0.0059593 0.019068 0.0024945 0.009409 -0.027395 0.0031688 -0.029876 0.0036217 0.014616 0.008492 -0.012062 
not -0.0016011 -0.0065138 0.0064821 0.0093565 -0.0034654 0.0023713 -0.0051028 -0.0056402 -0.02164 -0.010551 0.0045847 -0.016359 -0.0017504 -0.011091 0.0059205 -0.012353 -0.0079887 -0.0054492 0.0082384 0.0058102 -0.0025959 -0.014486 0.0041692 0.0015152 0.0057047 -0.0029643 -0.006241 -0.0045131 0.014783 -0.017985 0.0023381 -0.010224 -0.0013551 0.0025362 0.0037611 0.0016166 -0.00093394 0.001041 -0.0065637 0.0025203 -0.011015 -0.020467 -0.015047 0.0085221 -0.0067139 -0.009099 0.0025007 0.0016115 0.0047405 -0.005812 0.012874 -0.01569 0.016651 -0.0036866 -0.0012634 -0.00086736 0.0073308 0.009256 -0.017854 -0.0014451 -0.0062868 -0.0042761 -0.0093356 -0.0014189 0.00022375 0.012323 0.0043552 0.001883 -0.010479 0.0043487 0.0069804 -0.010777 0.0037695 -0.0014513 0.0017901 -0.0076531 -0.0043638 0.00084717 -0.0038869 0.012125 -0.00069728 -0.011244 -0.011679 -0.0042096 -0.0065732 -0.0013461 -0.016226 0.0021768 0.011954 0.00019059 -0.00061575 -0.011839 0.0042948 0.0018766 0.0065667 0.0070965 -0.0087898 -0.012735 -0.0062328 0.0021854 
import 0.0038005 -0.075042 0.057576 0.083415 -0.052178 -0.046725 0.00033612 0.039296 -0.15912 -0.11024 0.047852 -0.093108 -0.0027952 -0.038883 0.073538 -0.031042 -0.0080689 -0.08694 0.04625 0.030077 -0.002836 -0.12315 -0.022183 0.010989 -0.033883 0.048972 -0.004957 0.056629 0.0914 -0.10663 0.08362 -0.043432 0.079755 0.11068 0.15043 0.0025941 -0.033035 0.11873 -0.027256 0.016233 -0.070308 -0.20779 -0.055927 -0.0086548 -0.046183 -0.013285 -0.094328 0.030749 0.031662 -0.090445 0.059109 -0.10473 0.10023 -0.014385 0.086771 0.066842 0.035124 0.01488 -0.11731 -0.0013856 0.043946 -0.075767 -0.11333 -0.087005 0.089309 0.030069 0.16363 -0.05531 -0.054457 -0.010494 0.11176 -0.08708 0.01555 0.059774 0.022722 -0.0071183 -0.14334 -0.070129 0.01163 0.047059 0.010198 -0.056923 -0.10889 0.07022 -0.0038697 0.080886 -0.079894 -0.030834 0.039911 0.083127 -0.075866 -0.037406 -0.062385 0.10564 0.0026619 0.17284 -0.024185 -0.034781 -0.0040394 0.087192 
new 0.00077227 -0.00095146 -0.0095521 -0.0046862 -0.0035808 -0.0031298 -0.00077338 -0.0022839 0.018488 0.012433 0.0056681 0.0070113 -0.0045177 0.011957 0.00020585 -0.0038302 -0.0024485 2.6385e-05 -0.0092471 -0.012551 -0.0024135 0.014898 -0.006351 0.00095996 -0.0016086 -0.0087031 -0.0038007 -0.010993 -0.0099838 0.018105 0.0005528 0.012888 -0.015692 -0.012503 -0.015068 -0.0014393 -0.00015442 -0.015136 0.006382 -0.00025144 0.00080425 0.0084392 0.0010892 0.0024629 0.0093879 0.0060787 0.00077718 -0.0072922 0.0013693 -0.00043438 -0.015231 0.016248 -0.01611 -0.0025367 0.0019899 -0.01372 -0.010509 -0.0014496 0.011444 -0.0022529 0.00059551 0.0036801 0.016833 0.017532 -7.2507e-05 0.0024516 -0.0075117 0.0031115 0.0057271 0.00057818 -0.010871 0.015715 -0.0063402 -0.0047162 -0.011066 0.0048263 0.017302 0.012675 0.005606 -0.0035873 -0.0042185 0.006986 0.014155 0.001908 0.0093474 -0.016885 0.0029247 -0.0046734 -0.0052788 -0.011459 0.0071379 0.0036888 0.0089431 -0.0026629 0.0080303 -0.015121 -0.0069215 0.0082498 -0.0020651 -0.0068486 
case 0.0082223 -0.0084459 -0.0031053 0.00081055 -0.0053476 -0.010495 -0.0092747 0.0059107 -0.0080069 -0.0076125 -0.0074764 -0.0054128 0.006345 0.0044649 -0.0074506 0.0047128 -0.003301 -0.0089719 0.0024131 0.0073251 -0.001522 0.0049045 0.0094721 0.0078211 -0.010515 0.0024628 0.0073851 0.0070269 0.0063659 0.0061777 -0.0046294 -0.0048926 0.0017277 0.005796 0.0013048 0.0095892 -0.0055387 -0.0054304 -0.0052491 -0.0038741 -0.011023 -0.011917 0.00090364 0.00060635 -0.006983 -0.0080818 -0.00062675 0.0056283 0.008325 0.0065725 -0.00028093 -0.010152 -0.0015684 0.0057712 0.0073874 0.010801 0.010541 0.0052508 -0.0011358 -0.0037671 0.00071664 -0.0014467 -0.0053425 -0.0032124 0.010557 0.0046321 0.011888 0.00074595 -0.00050765 0.0096009 0.00036382 0.0066883 -0.0065455 0.0063404 -0.003499 0.0011341 -0.00051599 -0.0085301 0.0070794 -0.0076099 -0.0019276 0.00335 -0.0019724 -0.0014175 0.0085732 0.0081784 0.0018673 0.0028509 0.002777 0.010632 -0.0024353 -0.0038961 -0.011337 0.008921 0.0027416 0.0078583 -0.010042 -0.0014323 -0.0027034 0.0039641 
? -0.0033489 -0.012735 0.023126 0.022602 -0.021345 -0.020229 -0.0057025 0.0059549 -0.048555 -0.036078 0.017949 -0.020091 -0.0017743 -0.0054787 0.023478 -0.012778 -0.010454 -0.020599 0.012124 0.0018937 -0.0064851 -0.048292 -0.0029658 -0.00099427 -0.016983 0.01415 0.0025397 0.0079292 0.039182 -0.024638 0.015971 -0.0073771 0.021266 0.037246 0.050263 0.0072555 -0.0036369 0.028895 -0.0072307 0.0026596 -0.024802 -0.066832 -0.018254 -0.0067087 -0.019558 -0.0012781 -0.032767 0.018741 0.011016 -0.037698 0.017118 -0.033353 0.022813 -0.016561 0.027244 0.030584 0.019136 0.013445 -0.026192 0.0081389 0.0063437 -0.024264 -0.040579 -0.035708 0.038676 0.0081778 0.046811 -0.024379 -0.0095024 -0.0016411 0.042813 -0.036439 0.0092115 0.022914 0.010112 0.0083276 -0.04525 -0.02562 -0.0027677 0.013668 -0.0038917 -0.019891 -0.025073 0.012766 -0.00046175 0.019686 -0.020283 -0.015504 0.010351 0.030976 -0.021397 -0.0092952 -0.027968 0.032579 0.0096272 0.060937 0.00014555 -0.011892 0.0040963 0.03131 
and -0.0064028 0.01034 -0.0059807 0.0049179 0.006048 -0.0061121 0.004137 -0.0075273 0.00078714 0.0041916 -0.004671 -0.002166 0.005703 -0.0058394 -0.0059698 0.0039823 0.0017433 -0.0017597 -0.0042069 -0.0070489 -0.0087688 0.0048741 -0.0020364 -0.0023528 0.0065969 -0.0079955 0.0011442 0.0081012 -0.0034782 0.0092933 -0.0097137 -0.0059048 0.0017988 0.00012415 -0.011088 -0.0075016 0.0090916 -0.0084867 0.0034133 0.0011059 -0.0029322 0.0061808 0.0070031 0.0063469 0.0016507 0.0062531 0.007832 -0.0059601 -0.0026479 -0.003572 0.0016227 0.00021152 0.0001562 -0.0066604 -0.0065746 0.0037165 -0.0073705 0.006179 0.0097666 0.0065485 0.0011514 0.0047113 -0.0075028 -0.0087326 -0.010142 0.00092687 -0.0088516 0.0068223 -0.0083884 -0.0078469 -0.010405 -0.0073464 0.0036743 -0.007771 -0.0086249 0.0042616 -0.0083849 0.0021956 0.0087364 0.0023646 -0.005603 -0.0039155 -0.0036684 -0.00080157 -0.0090282 -0.0033865 0.0065793 0.0011571 0.0094886 0.0086963 0.0078928 0.0036612 0.0032292 -0.0051998 0.0085484 0.0064564 0.0031695 -0.0079282 -0.0020941 0.0026268 
namespace 1.9173e-05 0.01023 -0.0081776 -0.021491 0.011254 0.004028 -0.003302 -0.0018742 0.036249 0.02683 -0.017026 0.019725 -0.00052938 0.01202 -0.027277 0.011463 0.00018861 0.025844 -0.011585 -0.015774 0.0076013 0.022192 0.0071101 0.0034398 0.0027412 -0.016303 -0.0029437 -0.0030856 -0.015104 0.020412 -0.010034 0.0032451 -0.020503 -0.026083 -0.027201 0.005341 0.017636 -0.031639 0.0028067 -0.0084584 0.021363 0.050865 0.010815 -0.0063539 0.0076837 0.0035462 0.028134 -0.0076547 0.00087168 0.016903 -0.024331 0.018859 -0.020039 0.00018133 -0.018631 -0.017144 -0.0031112 -0.010079 0.036268 -0.010944 -0.0083925 0.016011 0.033066 0.031145 -0.019533 -0.00065905 -0.04091 0.0061707 0.017769 0.0078636 -0.024352 0.019587 -0.010274 -0.010878 -0.010959 0.0037732 0.024613 0.01045 -0.013059 -0.016254 0.007082 0.016 0.030901 -0.0090801 -0.0084791 -0.02574 0.015211 0.0066603 -0.0011005 -0.010302 0.010208 0.01522 0.020411 -0.012513 0.0074729 -0.0502 0.0019448 0.010502 -0.0046324 -0.025468 
or 0.0001773 0.0011739 -0.0028884 -0.0031354 0.010668 0.011315 -0.0050639 -0.0094255 0.021578 0.018716 -0.003021 0.0054849 0.0068384 0.0081397 -0.011532 -0.00064684 0.011482 0.012022 -0.010075 -0.014207 -0.0025144 0.0091904 0.012196 -0.0067254 0.0007104 -0.0024719 -0.0066759 -0.0098677 -0.0079978 0.020432 -0.0042202 -0.0049803 -0.0052985 -0.0094465 -0.022357 0.0045506 0.003369 -0.022478 0.010384 -0.00098282 0.010901 0.021328 0.012136 0.010401 0.0098935 -0.00936 0.00073652 -0.004011 -0.0091136 0.019121 -0.005836 0.0044517 -0.013966 0.011463 -0.016827 -1.1246e-05 -0.0088024 -0.010428 0.012297 0.0066393 0.0042146 0.002921 0.006054 0.012497 -0.0094367 -0.0062476 -0.02773 0.0084526 -0.00049637 -0.0088431 -0.015246 0.013075 -0.006505 -0.0020001 -0.009073 0.0090091 0.020117 0.0018632 -0.0031047 -0.014275 -0.001982 0.0071915 0.015826 -0.017269 -0.0092161 -0.014785 0.0011348 0.0087371 -0.0059694 -0.0099079 0.0063334 0.0045219 0.0010889 -0.016683 0.0014004 -0.019853 -0.0019748 -0.0020386 0.010836 -0.010475 
as -0.003158 0.0037777 0.0025271 -0.0066045 -0.010533 0.0069918 0.0045464 0.008777 0.0025172 -0.0072789 0.0075226 -0.0055305 -0.0011467 -0.0032273 0.010281 -0.0053464 -0.0082334 -0.0094265 0.0024075 0.0042589 -0.0079215 -0.010617 0.0054868 0.0097687 0.0044006 -0.0042884 -0.0067576 0.0095957 0.010296 3.1305e-05 -0.002318 -0.0037829 0.0017907 0.010595 -0.0023036 0.0021154 0.0034808 0.0078729 0.0078146 -0.0068096 0.0014949 0.0050708 -0.0066174 -0.0020286 0.0018999 -0.0078392 -0.0065707 0.0035653 0.0061664 0.005689 -0.00083239 -4.2281e-05 0.0042094 0.0025186 0.0058855 0.0071791 -0.0080767 -0.0073183 -0.0091959 -0.0096563 0.0029954 -0.0093085 0.0068666 -0.0097205 -0.0014893 -0.0011664 -0.0024287 0.0030468 -0.0057921 -0.0076355 0.0077416 0.0063413 0.0074176 0.0079338 -0.0085315 0.0095083 -0.0028129 0.0038552 -0.00086285 -0.0069736 -0.0017385 -0.0030599 0.0006128 0.006388 -0.0052301 0.0095929 0.0076115 -0.0028913 -0.0009449 0.010982 -0.0074221 -0.0052119 -0.0031193 0.010263 0.00073783 0.0089489 -0.0025366 0.0083793 -0.0064561 0.0092813 
@ 0.0028314 -0.0003222 -0.0034578 0.00084538 -0.0017387 -0.0029405 0.0062451 0.0088026 -0.006927 -0.007089 -0.0037059 -0.0060199 0.0057023 0.0031751 0.01261 -0.0012667 -0.0027693 -0.014772 -0.0022838 0.0029088 -0.004207 -0.0063331 0.0062361 0.0042734 7.0056e-05 0.0069643 0.00059354 0.012079 0.002936 -0.013839 0.0085129 -0.0065351 0.0095111 0.016214 0.00075759 -0.00068267 0.0060826 0.015318 -0.0071199 -0.0012232 -0.0025533 -0.019863 0.0030021 -0.0082046 0.0073217 -0.0069317 -0.011649 0.0087449 -0.0050217 -0.011616 0.0048083 -0.012035 0.013078 0.0026383 0.014283 -0.002996 0.0054025 -0.0058283 -0.012472 0.004842 0.012225 -0.0094019 -0.0023356 -0.013203 0.0080259 0.0025769 0.0034655 0.0024717 0.0046609 -0.0071128 0.012821 -0.01387 0.0022397 -0.0057939 -0.0073463 -0.0010973 -0.0023179 -0.0082252 0.0073989 6.3507e-06 0.00060345 -0.0064146 -0.0066857 -0.002175 -0.0034689 0.011836 -0.0091178 -0.006286 -0.0059108 0.0027831 -0.0069326 -0.0062219 -0.0028164 0.0073416 -0.0056676 0.00049148 -0.0038405 0.003454 -0.0044175 0.0056147 
using -0.0054636 0.01999 -0.0088184 -0.01722 -0.0015147 -0.0013072 -0.0023494 -0.0020203 0.031934 0.018173 -0.0032518 0.020312 0.0039561 0.0093547 -0.0058298 -0.001412 0.011893 0.013096 -0.016463 -0.0041442 -0.0019496 0.018874 -0.00038247 0.0052402 0.0030585 -0.0034279 0.0060398 -0.0045103 -0.017673 0.019802 -0.014486 0.014248 -0.020229 -0.026274 -0.028856 -0.010043 0.011282 -0.019614 0.010403 0.00085821 0.0021939 0.030854 0.0079972 -0.007027 0.0057618 0.0091599 0.022162 -0.014656 -0.010693 0.011793 -0.010926 0.015684 -0.0080597 -0.0027367 -0.0058501 -0.017286 -0.00080923 -0.0054088 0.027492 -0.010892 0.00039192 0.01759 0.023529 0.014423 -0.011072 0.0036698 -0.034569 0.018921 0.018625 0.0010409 -0.023248 0.024208 0.0077506 -0.0099674 0.0033655 0.0041486 0.023293 0.006959 -0.0076012 -0.016999 -0.010255 0.013112 0.0098651 -0.0015813 -0.0079922 -0.017044 0.011908 -0.0017674 -0.0019523 -0.0081897 0.019398 0.0035505 0.0053293 -0.016545 0.0043347 -0.021032 0.0027083 -0.0023413 -0.00054911 -0.011326 
</s> -0.0016677 0.0044776 -0.0068308 -0.0092579 0.0066284 0.0061906 -0.0090851 -0.0084163 0.017307 0.016131 0.0031726 0.014709 0.0078827 -0.0015007 -0.01241 -0.0047122 0.010305 0.011976 -0.011378 -0.010047 0.00024747 0.0088214 -0.0082177 -0.0076148 0.012003 -0.012246 0.0093772 -0.0043613 -0.0027307 0.010009 -0.0067026 0.010578 -0.002279 -0.0060663 -0.0049712 -0.00041263 0.010389 -0.0067989 0.010889 0.0069272 0.0085564 0.028186 0.01241 -0.00665 0.0045036 -0.00056215 0.0051402 -0.0044344 0.0078728 0.018343 -0.0016252 0.0068733 -0.010475 0.0054911 -0.00090746 0.002762 -0.0037618 -0.01066 0.019682 0.0078207 0.00033935 0.01064 0.013103 0.016259 -0.0085283 -0.0044446 -0.0079646 0.0026386 0.013042 -0.0025381 -0.003278 0.0010927 -0.010095 -3.4074e-06 -0.011813 0.0007691 0.0072845 -0.0034112 -0.01016 -0.0028471 0.0021166 0.0035533 0.018945 0.0029866 -0.0066399 -0.0082041 0.0077678 0.010052 -0.012465 -0.0011125 0.012115 -0.0040178 -0.0016995 -0.011278 -0.0047409 -0.021951 0.0028627 0.0048042 0.0049349 -0.013796 
class -0.0032805 -0.022846 0.021492 0.042742 -0.019504 -0.02495 -0.0089048 0.024481 -0.06777 -0.055611 0.027382 -0.027047 -0.0097496 -0.0092617 0.022285 -0.018778 -0.0048679 -0.028687 0.015665 0.022448 -0.01003 -0.058786 -0.0097672 0.010085 -0.011617 0.0079741 -0.0023442 0.014701 0.03639 -0.041969 0.029802 -0.024204 0.041709 0.043059 0.052926 0.012341 -0.019395 0.053221 -0.0064789 0.013681 -0.033896 -0.076896 -0.018309 -0.010916 -0.012861 -0.010559 -0.028782 0.0061431 0.0012302 -0.02905 0.027729 -0.047833 0.043641 -0.0067756 0.035265 0.035632 0.0066857 0.014759 -0.047769 0.0015311 0.0193 -0.033214 -0.043965 -0.037246 0.039456 0.015967 0.06434 -0.018145 -0.017714 -0.0035394 0.054978 -0.031459 0.013622 0.024029 0.016497 0.00011402 -0.050931 -0.036292 0.0080178 0.015969 0.005215 -0.019132 -0.033644 0.034052 0.0064082 0.03392 -0.037515 -0.01128 0.019123 0.030012 -0.022585 -0.024335 -0.017548 0.038357 -0.0072333 0.075072 -0.0074551 -0.014304 -0.0091341 0.023933 
with 0.0062322 -0.004455 0.00081066 0.0016682 -0.0099384 0.00034894 -0.00077212 0.0042338 -0.022479 -0.013143 0.0068168 -0.00084077 0.0015591 -0.001794 0.0097579 -0.0091368 -0.0024799 -0.0060908 0.013513 0.00039303 -0.0038007 -0.02176 0.0049945 -0.0022737 -0.0056656 -0.0057151 -0.0024229 0.0023047 0.018438 -0.0034366 0.012718 0.000839 0.0078232 0.011081 0.018503 0.0065234 0.0013649 0.019286 -0.011655 -0.0059106 -0.0030981 -0.010896 -0.014841 0.0045341 -0.00058278 0.0053921 -0.0026863 0.0062524 0.0089279 -0.00022723 0.0025167 -0.017204 0.010438 0.0070473 0.0064548 0.010475 0.0091459 0.0097051 -0.0049596 0.0041609 0.010574 -0.0011277 -0.0040799 -0.010289 0.011231 0.0053865 0.015073 -0.0048015 -0.013722 -0.0078393 0.013897 -0.012946 -0.0011355 0.00083874 -0.0039198 -0.0008249 -0.006337 -0.0091801 -0.0080878 -0.0033269 0.0043517 -0.005172 -0.0084617 -0.0010056 -0.0093569 0.0071847 -0.002357 0.004009 0.011459 0.009095 -0.01069 -0.0044789 0.0024272 0.00086032 -0.0030078 0.0090678 0.0020633 -0.0096631 0.0034923 0.012887 
% 0.0095841 -0.0044999 0.0042597 0.0075073 0.0058245 -0.003509 0.0043018 0.0068642 0.0024246 0.0027875 -0.0045399 0.010458 0.0056726 -0.0056332 0.0081095 0.0016905 -0.0057004 0.0087421 -0.0018442 0.0024751 0.0073699 -0.0076962 0.0067504 0.000242 0.0035352 -0.0055736 0.0050444 0.0045871 0.0035355 -0.0063206 -0.00030507 -0.00028721 0.004742 0.0088358 0.0035423 0.0061285 0.0017145 -0.0041384 -0.0062612 -0.0062389 0.00040481 0.0098304 0.0034299 -0.0083754 0.0073325 -0.0053845 0.0092853 0.0064497 0.0045941 0.0022972 -0.0012972 0.0047732 0.0014208 0.005829 0.0049798 -0.0088318 0.0088078 -0.0041105 -0.0014309 -0.0068345 -0.0018492 -0.0076136 0.0084196 0.0013618 -0.0047964 0.0078978 -0.0077183 0.0010927 0.0020176 -0.008956 0.0045823 -0.0038751 -0.00054796 -0.008823 0.0056913 -0.0030961 0.0023205 0.0032536 0.0019655 -0.0076936 0.0079571 -0.0086736 0.0034137 -0.0061196 0.0072315 -0.0078147 0.0017736 -0.0026416 -0.0038646 -0.0069186 -0.00123 -0.0068799 0.0060189 0.0030032 0.0099199 0.0039998 -0.0060706 -0.0050992 0.0013981 -0.0010487 
break -0.0022865 0.01005 -0.0055113 -0.0040962 -0.0042693 0.0064472 -0.006008 0.0085877 0.0072827 -0.0062196 0.0027085 -0.0033776 -0.0082305 0.0019029 -0.0043828 -0.0057959 0.0092227 -0.0067182 0.0022283 0.0080767 -0.002911 -0.0043183 -0.0076604 0.006982 0.0070587 0.0064785 0.0030127 -0.010807 0.0029776 -0.0016366 0.0070966 -0.0065745 -0.011627 -0.0040779 -0.0096329 -0.00054439 -0.0014403 0.00085802 -0.005922 0.0072245 0.0071641 -0.0044552 -0.0067464 -0.0075259 0.0081803 0.0097595 0.0091671 -0.0061097 -0.0047369 -0.0016025 -0.0093107 0.0022948 -0.0063576 0.010333 -0.0072227 -0.0027346 0.0060983 0.0025494 -0.0026737 -0.0087014 0.0058167 -0.0032977 -0.0057375 0.0031666 -0.0018337 -0.007993 -0.001502 -0.0029301 0.0038817 -0.0027106 -0.0078518 -0.0054087 0.004575 -0.0084727 -0.0097543 0.00041081 0.011168 -0.003694 -0.0096274 0.0040187 0.0086028 -0.0084754 0.00031895 -0.00098727 0.0039814 0.0032381 0.009406 0.0019962 -0.0074507 -0.001872 0.0066238 0.010451 -0.00061952 -0.0046809 0.0047715 -0.0029422 -0.00058284 0.010669 -0.0074643 -0.0034307 
operator 0.0018061 0.012275 0.0053518 0.0019904 0.010407 -0.0066746 1.2654e-05 -0.0078921 0.015232 0.0065247 -0.005753 0.010345 -0.008958 0.012358 -0.0068077 0.0059867 -0.001501 0.0063212 0.0068006 -0.0028577 -0.0076498 -0.0028909 0.0018129 -0.009268 -0.0033667 0.0042272 -0.004787 0.0060047 -0.00071058 -0.00082457 -0.012838 0.011084 -0.0096933 0.0029131 -0.0052911 1.2173e-05 -0.0016074 -0.014509 -0.007399 0.0052252 0.0032048 0.017262 -0.0038009 -0.004156 -0.0038677 -0.00068982 0.0045122 0.0033075 0.0085083 0.0067659 -0.0047804 0.002999 -0.0053567 0.010538 0.0030473 -0.0029309 -0.0049738 0.0049398 -0.0037822 0.0043515 0.0028307 0.014063 -0.00044592 0.0069454 -0.0082865 0.0079007 -0.01147 -0.00089225 0.011504 8.3274e-05 0.0017156 0.0022947 -0.0020479 0.0028701 0.0024219 0.0090885 0.016019 -0.0010835 -0.0025146 -0.0028302 -0.00061432 -0.0040538 0.0028383 -0.0021283 0.0002626 0.0047497 0.0026432 0.0035407 -0.011728 -0.0051805 -0.0042394 0.01095 0.0038674 0.0040316 0.0013573 -0.0071184 0.0049356 -0.0075183 0.0078481 -0.012663 
unsigned 0.0026467 -0.0042113 0.0011707 -0.0091252 -0.0082051 0.0094296 0.0076184 0.003097 0.012463 0.0012926 -0.011199 -0.0032984 -0.00036504 5.3597e-05 -0.0036735 -0.0045704 0.009071 0.00023215 0.0026118 0.0033703 -0.0093536 0.0061895 0.010516 -0.0049353 -0.0018151 -0.0078768 -0.0069212 0.0023491 -0.0068298 0.0090392 0.0040836 0.0059787 0.0035355 0.00065915 -0.010315 0.0084661 -0.0020713 0.0046523 -0.0013424 -0.0088586 0.0083397 0.0093813 0.00094091 0.009889 0.0073332 -0.0025051 0.0016946 -0.0065376 0.0052083 -0.0058746 -0.0058357 0.012135 0.0047484 -0.0083222 0.0058672 0.0045948 -0.0015236 -0.0017168 0.0045789 0.0034215 -0.0026031 -0.0060117 -0.0057457 -0.00025822 -0.0045433 -0.0021311 -0.0046787 -0.0013616 0.0098615 -0.0058841 -0.011776 0.0067868 -0.0087876 0.0013136 0.0082822 0.0064534 0.0070166 -0.00045664 0.001977 -0.0033593 -0.0047239 -0.00029028 -0.0013758 0.0053478 0.0090739 -0.0051345 -0.0023013 0.0058043 0.0021646 0.0061375 0.0086668 0.0082485 0.0051541 -0.01022 -0.0057798 0.00066361 -0.0035272 -0.0073027 -0.00010137 0.0029191 
static 0.0063868 -0.0030177 -0.0032987 -0.0064338 0.0028375 0.00086448 -0.0057432 -0.0031429 0.0077213 0.013525 0.0038936 0.010798 0.0054109 -0.0016189 -0.011907 -0.0063656 0.01028 0.0081994 -0.009649 -0.0057812 0.0071301 -0.0030361 -0.005921 0.0048734 0.002577 0.0045062 -0.0043926 -0.0033612 -0.0092077 0.0064629 -0.013378 -0.0039602 -0.0090554 -0.013577 0.00037429 -0.0011657 -0.0017138 -0.016143 -0.0054041 -0.00012629 -0.0035888 0.019847 0.0031266 -0.0081722 0.0044669 0.006842 -0.0027608 0.0050657 2.9203e-05 -0.0028188 -0.001486 0.014032 -0.0090036 0.0013061 -0.00046363 0.0053573 -0.012132 0.0069529 0.013047 0.0048811 -0.0073436 -0.0018368 0.014773 0.0075822 -0.012686 -0.010711 -0.006951 0.0061824 0.0078415 -0.0076588 -0.0037172 0.0019957 -0.0072878 -0.0024173 0.0054072 -0.0020827 0.013693 0.0056794 0.0016937 -0.0041009 -0.00087834 0.013123 0.011464 -0.0072488 -0.0063349 -0.0018766 0.001007 0.0077733 0.0056429 -0.007054 0.009671 0.010632 0.0098921 -0.012097 0.0066324 -0.014432 0.0074552 0.012239 -0.0022435 0.00026396 
public 0.0039358 0.0083499 -0.010453 0.0035879 0.0094619 0.00013268 0.0054073 -0.0044465 0.00013645 -0.0037496 0.0087002 0.0066406 0.0009874 0.002237 0.0082359 0.004195 0.0042111 0.0071835 0.0050434 0.00030282 0.0030555 0.0036091 -0.0015576 0.0091053 -0.007803 0.0043897 -0.0028778 0.00035968 -0.0083989 0.0024847 -0.003545 -0.0036477 0.0048385 -0.0083885 0.0058662 0.0065101 4.8186e-05 0.0080725 0.00095697 0.0018724 -0.0063976 0.0064104 -0.0008306 0.007748 -0.0041862 -6.1897e-06 -0.0060508 0.0038325 -0.0038394 -0.0049257 -0.0031223 0.0049823 -0.0060354 0.010088 -0.00044259 -0.0057621 0.0087128 -0.0053133 -0.0043711 0.0080939 -0.0052213 0.0040016 0.0066344 -0.0056335 0.0039348 0.0089624 -0.010741 0.0067947 0.0036967 0.0079123 -0.0021074 -0.0050573 0.0095992 0.0030779 -0.009771 0.0044967 -0.0037267 0.0052306 -0.00033347 0.0037864 0.0021046 0.0032292 0.0034047 -0.0088619 -0.0078452 0.0039135 0.0016206 -0.008888 -0.0061627 -0.010035 -0.0066643 0.00022894 -0.0071334 0.0075517 -0.0055158 -0.011061 0.0095352 -0.0020204 -0.0098853 -0.005347 
assert -0.0063355 -0.0012775 0.004622 0.0032891 0.0014622 -0.015128 -0.002042 0.010918 -0.020051 -0.011731 0.0027743 -0.0097062 -0.0030638 -0.016199 0.0052981 -0.0046325 -0.0075838 -0.0072356 0.0061648 0.00034245 -0.0011826 -0.025385 6.5134e-05 -0.0083722 -0.010186 0.0085419 0.0028621 0.012797 0.01289 -0.016994 0.004618 -0.0115 0.0050115 0.018492 0.022489 0.0035515 -0.00076353 0.022851 -0.0065034 0.0037507 -0.010849 -0.025807 -0.0047042 0.0018237 -0.0011084 0.0027023 -0.018343 0.013178 -0.0048449 -0.010008 0.014645 -0.019208 0.010122 -0.010225 0.0050086 0.0079951 -0.0017198 -0.0015854 -0.013934 0.0089637 0.0077722 -0.010477 -0.022213 -0.012743 0.02297 0.0015408 0.018561 0.0018502 -0.016552 -0.005279 0.010543 -0.015388 0.0038112 0.0034876 0.0058146 0.0027697 -0.021455 -0.0010607 -0.0065891 0.0045181 -0.0046341 -0.011986 -0.0059172 -1.405e-05 -0.0055443 0.0063323 -0.014855 -0.0069591 -0.00092515 0.020928 -0.011951 -0.0020923 -0.005686 0.023244 -0.0058233 0.023822 0.00028664 0.00026094 0.0011583 0.019861 
while 0.00095072 -0.0054821 -0.0026385 -0.011569 -0.0060013 -0.0040623 0.0077814 -0.0066283 0.013899 -0.0068967 0.0010788 0.0083639 0.0033112 -0.0057806 -0.0030714 -0.0023505 -0.0088677 0.0089869 -0.0058971 0.0014 -0.003055 -0.0036028 0.0087999 0.0097086 0.00014221 0.0055884 0.007853 -0.0038524 0.0059509 0.012182 0.0051263 -0.00025622 0.0031874 -0.011465 0.0056896 -0.0058384 -0.008608 0.0041502 0.00033147 -0.0050379 0.01053 0.014595 -0.0031944 0.0049779 -0.0074497 -0.0053584 0.0068637 -0.0074322 0.0036599 0.0086869 -0.0047836 0.0022886 -0.0046942 0.0078113 -0.010934 0.0014201 -0.011054 0.0009494 0.0043605 0.0091156 0.0059494 0.011271 -0.0043266 -0.0058125 0.00021286 0.0089776 0.0049414 -0.0063858 0.011054 -0.0078449 -0.0026941 0.00881 0.00070348 -0.00061857 0.0029517 -0.00645 0.0066498 0.0098259 -0.0023991 0.0084709 0.0060892 -0.00053983 -0.0060897 -0.0080114 -0.0083094 -0.0022469 0.0010903 0.00012467 0.0026124 0.0020518 0.0099555 0.0052787 -0.001711 -0.0060678 -0.0037686 -0.010052 -0.0027374 -0.0078312 0.0094063 -0.010367 
` -0.0033411 -0.006763 0.00049018 0.0028712 -0.01031 -0.00044495 7.0318e-05 0.00053492 -0.013886 -0.012466 0.0080144 -1.6085e-05 0.008585 -0.0024023 0.017641 0.0023876 0.0067368 -0.018636 0.0007874 0.0028836 0.0082727 -0.0074507 -0.0022862 0.0038634 -0.0069041 0.01461 -0.0070646 0.014532 0.013497 -0.0087623 0.0031458 -0.012281 0.0067854 0.012083 0.014789 -0.0011489 -0.010697 0.013568 0.0027056 0.012313 -0.010823 -0.014447 -0.014657 0.0070184 -0.001261 -0.0027595 -0.014432 -0.0015101 0.00439 -0.0053097 0.0036337 -0.012983 0.011263 -0.0012489 0.00021652 0.015037 0.0033155 -0.0015608 -0.022958 -0.0063066 0.0084093 -0.006126 -0.010667 -0.0032677 0.018344 0.011014 0.023484 0.0012523 -0.014433 -0.0014597 0.021963 -0.010341 0.0052092 -0.0017857 -0.0028281 0.0077093 -0.016703 -0.0071628 0.00099904 -0.0035884 0.0058904 -0.0064576 -0.0057072 0.0037449 -0.00063708 0.015494 -0.0039674 0.0071745 -0.0043306 0.017981 -0.014268 0.0046106 -0.010548 0.009857 -0.0060344 0.02124 0.0066613 -0.0067763 0.0037796 0.0053756 
asm -0.00141 0.0033031 -0.00040054 0.0034933 -0.0034506 0.0055198 0.0042916 -0.0023491 0.0046441 -0.00052604 0.0012799 0.006763 -0.0051362 0.0066058 -0.0039192 0.011076 -0.0046589 -0.0045761 0.0052826 -0.0026159 -0.00065746 0.00016034 -0.00060975 -0.000247 0.0065872 0.00091534 0.0045369 0.0049846 -0.0075562 -0.0018038 -0.0050096 -0.00088239 -0.00030336 -0.0060939 0.0015779 -0.0025173 -0.0031281 -0.0012899 0.0047475 0.00025606 0.011502 0.017774 0.011838 0.010023 -0.0052009 -0.00093006 0.0015261 -0.00048434 0.0014885 0.011018 -0.0087617 0.010703 -0.0079718 0.0071078 -0.00912 -0.012414 -0.0023347 -0.0022368 0.012832 0.0093163 -0.003952 -0.0064905 0.0068825 -0.0033755 -0.010877 -0.0062423 -0.01267 -2.3841e-05 0.00017821 0.0060499 -0.0059604 0.0097704 -0.0039609 -0.0098542 0.0064752 0.006233 0.015254 -0.0013617 0.0054159 -0.0087567 -0.0049914 0.011679 0.0082679 -0.0094538 -0.0060552 0.0034236 0.013079 0.0081662 -0.00866 -0.00060823 0.0030453 0.0099943 0.0078438 -0.0098309 -0.0082356 -0.006388 -0.0056601 0.00035962 0.0085044 0.0021076 
default -0.0030365 -0.0098602 0.00022052 0.0096774 -9.7649e-06 0.0045097 -0.0096469 0.005642 -0.0045694 -0.013179 -0.0064556 -0.0080711 0.00011014 0.0013454 0.011008 0.0082603 0.0054208 0.0055305 -0.0069361 -0.0053569 -0.0033062 -0.0092005 -0.0018092 -0.0095117 -0.0018475 -0.0053045 0.0014427 0.00029938 -0.0047288 -0.010354 0.0081637 -0.0024732 0.0076261 0.011636 0.0074072 0.0050392 -0.007527 0.0019722 0.0051363 -3.1093e-05 -0.0048633 -0.013105 -0.0028537 0.0084826 -0.0011125 0.0075561 0.0060541 -0.0040284 0.002761 -0.004981 -0.0043749 -0.005724 -0.0063221 0.0059199 0.0013257 -0.0021193 0.0088109 0.0057448 -0.0094815 0.0047595 0.008327 -0.0092271 -0.0080448 -0.006969 -0.0029458 -0.00041928 -0.0020975 -0.0071263 -0.001815 0.0050158 0.0068906 -0.0051426 -0.0042685 0.0028872 0.0020917 -0.0074592 -0.0047136 0.0043896 0.0058189 0.0004121 -0.0016417 -0.0093901 -0.0041733 0.011303 -0.0065284 -0.0015646 -0.00016857 -0.0033493 0.0028198 0.0093184 0.0011719 0.0083262 -0.0056022 -0.00023209 -0.0040562 0.01629 -0.0074549 -0.0069519 0.0023904 -0.0042396 
struct 0.002822 0.007513 0.0084903 -0.0051805 -0.0059736 0.0049458 0.0062803 -0.0024865 -0.0068827 -0.0024137 0.0067512 0.010513 0.0064853 0.0037455 -0.0034838 -0.006779 0.0018261 -0.0045522 0.006244 0.0014935 -0.00403 0.0063534 -0.0021604 -0.0037394 0.00065015 -0.0080353 -0.0051067 -0.0084314 -0.0064568 -0.00021538 -0.0052784 0.0018476 -0.0066675 -0.0036703 0.0023852 -0.0087651 -0.0051181 -0.0098812 0.0098713 0.0060893 -0.0083137 0.0035102 0.0076542 0.00045024 0.0014922 -0.0039634 0.0022857 -0.0021899 -0.0098715 -0.0064972 -0.0094723 0.011218 -0.0016123 0.0055772 -0.0098718 -0.00091863 -0.0054225 -0.0067479 0.0047108 0.0017351 0.0084615 0.005416 0.0028502 -0.0071952 -0.0050843 0.0085159 0.0013579 -0.00085611 0.0049427 0.0088142 0.0060525 0.010971 0.0081229 0.00057189 0.0072659 -0.0047181 0.011553 0.0033203 -0.0058304 -0.0053865 0.0095339 -0.001216 0.0026079 -0.00012291 0.0099695 -0.006017 0.010157 -0.0061696 -0.00833 0.00066218 -0.0050839 -0.00042706 0.0073582 0.002528 -0.0022909 -0.010887 -0.0075071 0.006173 -0.004008 0.0062031 
$ -0.005233 0.0032583 -0.0034086 0.0057619 0.0081756 0.0066742 0.0044817 -0.0061421 0.0042445 0.0024109 -0.00158 -0.0014249 -0.0047708 -0.0087829 -0.0031491 0.0093442 0.00041122 0.00039961 0.0078431 -0.0066435 -0.0023439 -0.0071176 -0.0011174 -0.0093767 -0.0048086 0.0031283 -0.0042023 0.00029715 0.0030759 0.010742 0.0028234 0.00082279 0.0020943 -0.0021774 0.0075821 -0.0027028 0.0010576 -0.010275 0.0018183 -0.0093325 -0.0079521 0.0026261 1.893e-05 0.0076319 0.0076684 0.0013456 0.0055076 -0.0059218 -0.0054935 -0.0054082 -0.009345 -0.0070433 -0.0075903 -0.001433 0.0016079 -0.0046191 -0.0017778 0.0032852 -0.0011358 0.0097746 -0.0015911 0.0049174 0.00097684 0.0012136 -0.0086747 0.0022084 -0.0078819 0.0063385 0.0010585 0.0073284 -0.010581 0.0071427 0.0068511 -0.0063822 -0.009733 -0.0018649 -0.0062082 0.0050854 0.0044173 -0.0044315 -0.0081139 0.0083021 0.007385 0.003654 0.0026231 -0.0027909 0.010471 0.0023566 0.0052711 -0.0095806 -0.0091706 -0.0022176 0.00055465 0.0025699 0.0038281 -0.0022259 0.0069214 -0.0017323 -0.0068321 0.00098786 
switch 0.0046627 0.0004814 -0.010982 -0.0071309 0.0080934 -0.00097583 -0.0069867 -0.0074466 0.0046849 -0.0023062 0.008894 0.0076449 -0.0065337 -0.0063547 -0.0095455 -0.0061684 0.0013821 0.0015611 -0.0081552 0.0011853 -0.0024916 0.0015844 -0.0035278 0.0033608 0.0029838 -0.009606 -0.0039331 -0.0043014 0.00050787 0.0014553 0.0066326 -0.0066762 -0.0040467 0.0025853 -0.0057563 0.00010324 -0.0037841 -0.0069957 -0.0081291 -0.0054566 0.0046972 0.012087 -7.5723e-05 0.004535 0.010087 0.0046307 -0.00010014 0.0030328 0.0080324 -0.0052968 -0.005622 -0.0064133 0.0072906 0.0069074 -0.00011423 -0.0011816 -0.0064221 0.0030911 0.0046735 0.0030454 -0.00042341 0.0051715 0.009407 0.008821 -0.0050104 -0.0090543 -0.0068884 -0.0032226 -0.0079766 0.0050199 -0.0010848 0.002042 0.0014345 0.00064766 0.0060153 -0.0047036 -0.0043715 0.0052375 0.0050295 0.0064478 0.0053111 -0.00068602 0.00544 -0.0054952 -0.0071927 -0.0061661 -0.0027295 0.0080956 -0.0068073 -0.00089083 0.0086594 -0.00031785 -0.0017641 -0.011633 -0.0040856 -0.011721 -0.0089148 -0.0028991 -0.0037567 -0.0040951 
do -0.0054708 -0.00054769 -0.0078839 -0.00045242 0.0065551 0.0097422 -0.0017685 -0.0043072 0.00073904 -0.0071874 -0.0048637 -0.0074482 0.0095049 0.003181 -0.0027801 -0.0042521 -0.0027295 -0.0057705 0.0024639 0.0060145 0.0014608 0.011802 -0.00044012 0.0027748 0.0035665 -0.0019628 -0.0048316 -0.0018548 0.0047372 0.0094452 -0.0068042 0.0057539 0.0018924 -0.0067963 -0.0030844 0.0090431 0.0075623 -0.0095971 -0.0088239 0.0080652 0.002026 -0.0010918 -0.006902 0.0080512 -0.006383 0.00063653 -0.0024216 0.0024988 -0.0085968 -0.007098 0.004942 0.0027378 -0.0068033 0.00055698 0.0037028 -0.00037743 0.0053743 0.0017714 -0.0034794 -0.0077276 -0.010322 0.0099141 0.0016959 0.01073 -0.0091305 0.0086203 0.004344 0.0078304 0.00053352 -0.0097955 -0.001504 0.0011394 0.0031541 0.0051955 -0.0075482 -0.0065027 0.0094922 -0.00060632 -0.0087649 0.0076319 0.0041283 -0.0019862 0.0020907 0.0022056 0.0092743 0.0037119 0.0046683 -0.0063083 -0.0032547 -0.0030951 -0.003701 -0.0011617 0.004182 -0.0015622 -0.0040224 0.0017811 0.0072397 -0.0063607 0.0044209 0.0003815 
True -0.0045718 -0.017192 0.0081747 0.015196 0.00016691 -0.0028178 0.00055222 0.014329 -0.026401 -0.020639 0.0085279 -0.015414 -0.010957 -0.00014195 0.0037877 -0.0015855 0.0039645 -0.017693 -0.0033895 0.0065801 0.0031416 -0.0056899 -0.0088761 0.0085906 -0.0047956 -0.00089841 0.0089637 0.014394 0.020753 -0.016337 0.0059941 -0.010352 0.012302 0.0061838 0.0088044 0.0089583 -0.002166 0.0058463 0.002469 -0.0039851 0.0023848 -0.016092 -0.011904 -0.0044397 -0.0097817 -0.0072734 -0.014587 0.0074112 0.0079636 -0.0035691 -0.0010893 -0.011608 0.0088149 -0.011482 0.017535 0.0031131 -0.0015966 0.003776 -0.011987 0.002564 0.013264 -0.00011129 -0.0079189 -0.016832 0.011217 0.0064365 0.011675 -0.0035447 -0.0092413 -0.0014173 0.019186 -0.017154 -0.0014128 0.010046 0.00046859 0.0076703 -0.010236 -0.004768 -0.00029135 0.0072699 0.0038256 0.00052964 -0.0061057 0.0017972 0.007867 0.0075543 -0.0048262 -0.0028659 0.0025572 0.010253 -0.016324 0.001503 0.0013488 0.0022272 0.0018647 0.016073 -0.0069014 0.0024486 0.0063705 0.0088022 
delete 0.0038745 0.0038424 -0.0049697 -0.0078031 -3.0194e-05 -0.0086651 0.0076323 0.0065088 0.00019473 0.0056016 -0.0039059 -0.0068286 -0.0078303 -0.0056034 0.0022478 0.0040654 -0.0076799 0.0092706 0.0078591 0.00040028 0.0071148 -0.0037249 0.0073634 0.0058104 -0.0041813 0.0017458 0.0081916 0.0021154 0.0064481 -0.0047236 0.00038546 0.00014432 -0.0091757 -0.005908 0.0062587 -0.0018902 0.0088254 0.0036163 0.004049 -0.0066947 -0.00548 -0.0080773 -0.0001173 -0.0039237 -0.0063042 -0.0034949 -0.0079289 0.0063789 0.0068109 0.0043807 -0.0078313 0.0006742 -0.0082827 -0.0091867 0.0034901 -0.0051038 0.00056233 0.0099584 0.0043066 -0.0045049 -0.0018296 0.0069094 0.0059085 -0.004348 0.0096117 0.0097121 -0.0028104 0.0085528 -0.0094286 0.003801 0.0088375 -0.001838 -0.0065727 0.0087317 -0.0091513 0.0059451 0.0070908 0.0085651 0.0030698 -0.0033705 0.0087909 -0.0033185 -0.0092268 -0.0024114 0.0038024 -0.0029033 -0.0054054 0.006898 -0.0022054 -0.0011059 0.007338 -0.0018596 -0.0066398 -0.0018803 -0.00081517 -0.0023243 0.0061736 0.008457 0.00042534 -0.0093924 
^ -0.0049278 0.0015174 -0.005832 -0.0063918 -0.006517 0.0052341 -0.0033626 -0.0051833 0.008735 0.0047755 -0.0049396 0.008966 0.0039556 0.0089894 -0.0013214 0.001733 0.0051488 -0.0071741 0.0078002 -0.0086736 -0.0069362 0.0066281 0.0048814 0.0069029 -0.0044401 0.0084448 -0.0010672 0.0045943 -0.0032393 0.005385 0.0072213 -0.002397 0.0072715 0.0063843 0.0023755 0.0044631 0.0024528 0.0077257 -0.0029264 0.00076288 -0.0030882 -0.004475 -0.0083691 0.0088932 -0.0049998 -0.0046097 0.0083302 0.008044 -0.0044712 -0.00098528 -0.0085682 -0.0070217 -0.0095292 0.0039151 -0.0061703 0.0025324 0.0090413 -0.0076136 -0.0037188 -0.0020808 0.0020717 -0.0051395 -0.0050923 0.0041566 0.0084961 -0.0045152 -0.0066394 0.0034483 -0.0034222 0.009139 0.001184 -0.0066755 0.0053271 -0.0044156 -0.0013072 -0.0020288 0.010063 0.005901 -0.00046171 0.0061871 0.0083533 -0.0039951 -0.0077332 -0.00023189 0.0014773 0.00010753 -0.0085321 0.0004426 -0.0068405 -0.00062698 0.0097665 0.00064077 0.004372 3.9397e-05 -0.0037655 0.00465 0.00022696 -0.0044711 -0.0029083 0.0060222 
print 0.0045752 -0.003303 0.0091162 0.012875 0.0010619 -0.010322 -0.0062451 0.0085308 0.00067728 0.00035773 -0.0018068 -0.010443 -0.0078533 -0.0041842 -0.0063545 0.00094151 -0.0042847 0.0071694 0.0078753 0.0099587 -0.0018843 -0.0066316 0.0066676 0.0099168 0.0017387 0.0039598 0.0017919 0.0033616 3.2373e-05 -0.01008 6.3262e-05 -0.00036772 -0.005213 0.0076523 -0.0027223 -0.0048277 -0.0042186 0.0090858 -0.0060635 -0.00091305 -0.011344 -0.016146 -0.011737 0.00059244 0.0034943 0.0065878 0.0064565 -0.0022983 0.0024936 -0.012256 0.008513 -0.0028231 0.010214 0.0033145 -0.00064958 0.008322 -0.0045819 0.0088036 -0.012827 0.004238 0.005942 0.0065626 -0.0092772 0.0019188 0.008919 -0.00013786 0.0061559 0.007363 -0.007414 0.0014955 0.0060889 -0.0079079 -0.0049017 0.0099617 -7.6131e-05 0.0025293 -0.0038469 -0.0093413 -0.0069317 -0.007824 -0.0058749 -0.0054101 0.0031384 -0.0029725 0.0069226 -0.0021282 -0.0071376 -0.0019172 0.00014634 -0.0036093 0.0056929 -0.0087507 0.0019657 -0.0019879 -0.009398 0.01435 0.0067581 0.00075033 0.0030738 0.002741 
throw 0.00052846 -0.0054059 -0.0071209 -0.011557 -0.0029474 -0.0077021 -0.0058753 0.0055149 -0.00033539 -0.0048464 0.0088665 0.0088561 -0.0074614 -0.0070582 -0.010553 0.0040442 -0.0038777 0.0015669 0.0065821 -0.0015808 0.0032042 0.007389 0.00014269 -0.0067454 0.0042569 0.0073087 0.0073568 0.0044492 0.0077283 0.0016264 0.00061653 -0.0057985 -0.002737 -0.0027404 -0.00068495 0.00024985 -0.001048 -0.00096136 0.0036661 0.0044419 0.004301 -0.001089 -0.0063158 0.0038862 0.0036378 0.0091007 0.0031177 0.0064814 0.0092215 0.011346 -0.0077894 0.011817 -0.01085 0.0050808 -0.0094365 0.0032311 -0.0031679 -0.0081617 0.0091392 -0.0034504 0.0073315 0.00318 0.010533 -0.0066042 -0.0091367 0.009333 -0.0068984 0.0062578 -0.0076431 0.0017847 -0.011314 -0.0064469 -0.0091739 -0.0068271 -0.0056456 0.0032003 -0.0022536 -5.4111e-05 -0.00061269 -0.0098836 -0.0097288 0.0099808 -0.0048143 -0.0015744 0.0081373 -0.010642 -0.0024827 -0.0027955 0.0047814 -0.004743 -0.0057858 0.0022585 0.0032962 -0.010698 0.0042877 0.0012681 0.009543 0.00063175 -0.0063158 0.005748 
try 8.323e-05 0.0041523 -0.0039904 0.0039027 -0.0080871 0.0046873 -0.0067969 -0.0037531 -0.00795 0.0051622 -0.0021506 -0.0064027 -0.0091251 -0.0072556 -0.00032557 0.0025238 0.0035267 -0.0063762 -0.0036039 -0.0044638 -0.0066431 -0.0035114 0.0053191 0.0078468 0.006063 -0.0012726 -0.0024284 0.0061357 -0.0027361 -0.0079401 0.0004484 0.0019614 -0.00060944 -0.00091836 -0.00051608 0.009151 0.00050529 0.007793 -0.0064117 0.0080819 0.0031917 0.0011832 0.0039803 0.0089325 0.0015417 0.0052778 -0.0087244 0.0076759 -0.0064705 -0.003859 0.003967 -0.00037722 0.0048991 -0.0063932 -0.0069054 0.0029257 4.2692e-05 0.0011096 -0.0097253 0.0098946 0.0025994 -0.012436 -0.0061704 -0.0077412 0.0012781 0.0059833 0.0056996 0.0078182 -0.0045581 0.0028497 -0.0018725 -0.0069296 0.0023768 0.010497 -0.0017443 -0.0028319 -0.0060807 -0.0020521 -0.0042939 0.0055327 0.0054445 0.0054063 -0.0060702 0.00014269 -0.0064928 0.0066286 -0.010577 -0.00046045 0.0043145 0.0033745 -0.0013421 0.0031499 0.0069314 0.0072291 0.0048279 0.0070187 0.0079129 0.0066469 0.0046133 0.0055464 
continue -0.0014423 0.0069313 -0.0061524 0.0019424 -0.0039822 0.0049093 -0.0071538 0.0038651 -0.0025069 0.0031415 -0.0040663 0.0081034 0.0057049 0.005062 -0.0074102 0.0036992 0.0044243 -0.0018447 0.0079976 -0.001759 0.0059065 0.0041863 0.00267 -0.0097679 -0.0088861 0.0044845 -0.0088966 -0.0046105 0.0064751 -0.0047237 -0.0044528 -0.0017096 0.0085547 0.00093857 -0.0045349 -0.0024142 0.0080962 -0.010713 0.0035594 -0.0079302 0.0088968 0.0018011 0.0057338 0.0045953 0.008515 0.0041187 0.0070278 0.0086562 0.0032358 0.0085904 -0.0011403 -0.0087062 0.0036465 0.0072877 0.0041586 -0.0017915 -0.0063387 -0.0018163 0.0026336 0.0053886 0.0094372 0.0009456 0.0056509 -0.0037676 0.0024954 0.0071118 0.0018214 0.00089277 -0.0093106 0.0072317 0.0022824 0.003204 -0.00042297 0.0072618 0.0057857 0.002178 0.011121 -0.0032095 -0.010024 -0.009812 -0.0039205 0.001977 0.00062365 -0.0083407 -0.0026894 -0.0012935 0.00022752 -0.0018466 0.006793 -0.0066233 0.00060855 0.00011237 -0.00058929 -0.0098525 -0.009801 -0.010944 -0.0078709 0.0039457 0.0021068 -0.004405 
sizeof -0.0033086 0.0035248 0.0043461 0.0060578 0.0083821 -0.003352 -0.0080601 -0.0045101 0.01262 -0.0025218 0.0052888 0.011605 -0.0064045 -0.0034405 0.0048722 0.0070949 0.009498 0.0099811 0.0043377 0.00084616 -0.0064362 -0.0059173 0.0038375 0.0019683 0.0068116 0.0024967 -0.0073226 0.0071402 -0.0039188 0.0034524 -0.00025982 0.010138 0.0047139 -0.003269 0.0071063 -0.0015485 0.00061603 -0.0026958 0.0003899 0.0072716 -0.0079961 -0.00025068 -0.0035798 -0.0080155 -0.0012648 -0.0055873 0.005946 0.0067027 -0.0041123 -0.0021542 0.0052696 0.0057776 0.0019566 -0.0025288 -0.010053 -0.0043304 0.0033236 -0.0060802 -0.0023688 0.0080304 0.0089131 0.0028167 -0.0015441 0.007809 -0.0080878 0.0012248 0.0014276 0.0043527 0.010798 0.0067523 -0.0082005 -0.00069899 0.0074003 -0.0014829 -0.0032524 -0.0041249 0.0023286 -0.0043991 -0.0014922 0.0026924 -0.0047333 -0.00775 0.0079279 -0.0028073 -0.0087174 -0.010749 0.0078551 0.0048327 -0.0074753 -0.0098686 0.009789 -0.0089929 0.0042827 0.001018 0.0070532 0.0039252 0.00522 0.0073201 0.0075383 -0.0030581 
None 0.002639 0.0047205 -0.0041895 0.013073 -0.012973 -0.0060907 -0.0078419 0.0066964 -0.014867 -0.013054 -0.005526 0.0026445 -0.0010866 0.0031329 0.010212 -0.0099522 -0.0067238 -0.0048073 0.0047815 0.011027 -0.0019143 -0.0053764 0.0025774 0.0059653 -0.0080402 0.0031273 0.00096863 -5.019e-05 0.007426 0.0015028 0.0044351 0.0036534 0.015811 0.0010688 0.016137 0.0081013 -0.0082146 0.0051883 -0.0055167 0.0083374 -0.0025586 -0.01631 -0.00030154 -0.0078034 0.0030597 -0.0056635 -0.013128 -0.0010294 0.0017978 -0.0017358 0.014493 -0.0013055 0.0086472 -0.011443 0.0030101 -0.0041352 0.0088535 -0.0072475 -0.011836 0.00042766 0.0033962 -0.0070209 -0.016465 -0.0063463 0.0010696 -0.00083886 0.0060437 -0.0055264 -0.0074759 -0.0011003 0.0097595 -0.0089507 -0.0048237 -0.0031427 0.0056662 -0.0095924 -0.01989 -0.0010173 -0.0071221 0.0082608 1.7422e-05 -0.0049873 -0.0073785 0.015032 0.0023324 0.011992 -0.010423 -0.0054062 0.011035 0.015838 0.00072083 -0.002887 -0.0029066 0.015604 -0.00071109 0.0086405 -0.006286 -0.0086423 -0.0085137 0.010309 
short -2.7391e-06 -0.0055297 -0.0039824 0.0069797 -0.00088015 0.0038134 0.0053074 -0.0098335 -0.0065145 -0.00031055 0.0028778 -0.001873 -0.0027352 -0.007156 0.0075049 -0.003948 0.0041043 0.0062017 0.0055965 0.0070896 0.0089862 -0.0084567 0.00096179 -0.0019674 -0.0045498 0.0044502 -0.0026241 -0.0086655 -0.0032027 -0.00025235 -0.0072774 0.0094444 0.0088161 -0.0055058 -0.0056623 -0.0096476 0.0001514 -0.0067265 0.00021293 0.0085749 -0.0032471 -0.00023013 -0.0025664 -0.0001694 -0.0027372 0.0060769 -0.0068683 -0.0090736 0.0023472 -0.0019567 0.0061141 -0.001058 -0.0048687 0.0032742 0.0034176 -0.0077199 0.0015456 -0.0085958 -0.00039916 -0.0070577 -0.0010392 -0.003654 0.0056071 0.0014315 -0.0082115 0.0072179 0.0091332 0.00882 0.0074479 0.0071285 -0.0088067 -0.0030625 0.0062304 0.0060832 -0.006403 -0.0028746 -0.0082709 -0.0053063 0.0046552 0.0075892 0.0034959 2.7644e-05 0.0093347 -0.0068644 -0.001563 0.0018351 0.0097401 -0.0073852 -0.0017367 -0.0056537 0.0068832 0.00609 0.00086136 -0.0016749 0.0083017 -0.0042495 -0.0052039 0.0012709 -0.004328 -0.003972 
inline 0.007026 0.00095435 0.0085955 0.0060941 -0.0053029 0.004284 -0.006094 0.002381 -0.0048329 0.0074843 -0.010077 -0.0054835 0.004602 -1.5001e-05 -0.0051678 0.0023833 0.0056698 0.002588 0.0056543 -0.0084649 -0.0084514 0.0070555 -0.0072553 0.0047017 0.00076633 0.0073862 -0.0025357 0.0031253 -0.0099533 -0.0015779 -0.0097044 -0.0032962 0.0011074 -0.0092137 -0.0085114 -0.0036687 -0.0024526 -0.0038947 -0.00090803 0.0078099 -0.0046448 -0.0055821 0.0080309 0.0040803 0.0061931 0.0053731 0.0062746 -0.0092061 0.00056003 0.0073651 0.0062572 0.0092785 -0.010222 0.0020408 -0.0032701 0.00024674 -0.00087587 -0.0099879 0.0012165 0.00063034 0.0089525 0.005849 -0.0089889 -0.0038458 0.0079261 -0.00053168 -0.0083478 -0.0047454 -0.00013235 0.0051615 -0.010423 -0.0076799 0.0057161 0.0037811 -0.0051238 -0.0040524 0.0097472 -0.0053283 0.0082443 -0.010006 0.0044319 -0.0034057 0.0019171 0.0067088 -0.0011668 0.0047553 0.001089 -0.0044435 0.0046037 -0.010452 -0.0090971 0.0044141 -0.00092343 -0.0020317 0.0071126 -0.0005284 0.0067665 -0.0033162 -0.0090641 -0.0065983 
catch 0.0083843 -0.00044931 -0.0087295 0.0045357 -0.0025927 -0.0045154 -0.0030106 -0.0050222 0.010255 -0.0071996 -0.001471 -0.0042915 0.0081617 0.0029525 -0.0027083 -0.0036031 0.0089716 0.0049192 -0.0081801 0.0027736 -0.00087205 -0.0013795 0.0019513 -0.008271 -0.0053724 -0.0011118 0.0034853 0.0022846 0.0057123 -0.0051181 0.0034227 0.0083988 0.0081434 -0.010124 -0.011841 -0.0045661 -0.0054192 0.0048787 -0.007802 -0.0064295 0.0093435 -0.005852 0.0098699 -0.00053461 0.0022325 -0.0065107 0.004877 0.0080564 -0.0095835 0.00084213 -0.0011565 0.0021389 -0.001057 0.0013842 -0.0024548 -0.00974 -0.0067035 -0.0068869 -0.0042094 2.9409e-05 -0.0057984 -0.0010493 0.0054461 0.00055845 -0.0079315 -0.0042927 -0.002765 -0.0067055 0.0031496 -0.0084475 -0.0095425 -0.0061301 0.007542 -0.0071244 0.0021923 -0.0040404 -0.00069389 -0.0051025 -0.0084021 0.0022463 0.0081509 0.0074873 0.0095949 -0.0049321 -0.0036044 -0.0099767 -0.0043676 0.0037565 -0.0080068 0.0071833 -0.003111 0.0095372 0.0060104 -0.0029013 -0.0053375 0.0034088 0.0063868 0.0069483 -0.0013978 -0.0072199 
False -0.0077 -0.01278 -0.0060684 0.011157 -0.012308 0.0048568 -0.0011572 0.0080428 -0.019338 -0.003667 0.0050052 -0.012339 -0.010549 -0.011697 0.0044839 -0.0060231 0.0084534 -0.0027328 0.0099536 -0.0056882 -0.010006 -0.014018 -0.00038842 0.0019951 -0.0032326 -0.0071111 0.00012068 0.0091853 0.0003772 -0.0074259 0.011795 -0.0042235 0.013484 0.0051104 0.0084053 0.0020377 0.0077527 0.0065113 -0.00059368 -0.0052811 -0.0075929 -0.0045366 -0.0091837 -0.005343 -0.0072653 0.0021704 0.00030131 0.0076586 -0.0054369 -0.012397 -0.0034603 -0.015273 0.013864 0.0043459 0.013303 0.011521 0.0029553 -0.00070305 -0.0093837 0.0030965 0.00093485 0.0019564 -0.0050334 8.7588e-05 0.0011875 -0.0051267 0.017686 -0.0043149 -0.0096845 -0.0054414 0.012688 0.00070443 -0.0021978 -0.0042444 -0.0049917 0.0083177 0.001136 -8.306e-05 -0.0057636 0.0086516 0.0050031 -0.012878 -0.011389 0.01365 0.0086326 0.0027621 -0.014537 -0.0013292 0.0048817 -0.0035074 -0.014388 -0.00075724 -0.0052127 0.0036096 0.0034057 0.016562 -0.00135 -0.0097812 -0.0060528 0.0070087 
long -0.0082606 -0.0026214 -0.0072648 -0.0087637 0.0062196 -0.0065266 0.0052614 0.0045937 -0.0055358 -0.005944 0.00025091 -0.0065432 0.0020453 0.00061003 -0.0062745 -0.0084799 0.0032348 -0.0080349 0.0012844 0.0065784 0.0051017 0.0057782 0.0029819 -0.0033084 0.0089876 0.0013606 -0.0081462 -0.0085576 0.0010105 0.0076386 -0.00097519 0.0069043 -0.008686 0.0011265 -0.00083021 -0.0048018 -0.0092703 -0.0016729 0.0065242 0.0092153 -0.0031519 -0.0028311 0.00056722 -0.0024873 -0.0099693 -0.0084008 -0.0021793 0.0022034 -0.0071076 0.0024786 0.0052447 -0.0015065 -0.00082056 -0.0033021 0.0098375 -0.0037906 0.0010918 -0.00036504 0.0014721 0.0059989 0.0088909 0.00417 -0.0083181 -0.00075094 -0.0042881 -0.0038287 0.0057999 -0.0075351 -0.0062199 -0.0029106 -0.0074786 0.0038769 -0.00053927 0.0010763 -0.0015914 0.0069556 -0.0054696 -0.004898 0.00037958 0.00082351 -0.0051626 -0.0018144 -0.0035851 -0.009379 -0.0052005 -0.0033233 0.0057038 -0.0098453 0.0021614 -1.297e-05 0.00090707 0.0067991 0.0096337 0.00879 0.00036778 0.0011772 0.00049433 -0.0030532 -0.00034286 -0.002165 
~ 0.0021846 0.0093508 0.0078255 -0.0095036 -0.0075035 0.0095173 0.0039541 0.0086567 0.00019464 0.00086204 0.0058471 -0.0020751 0.0031073 -0.0084513 -0.0079099 0.0091504 -0.0056093 0.0072209 -0.0017721 0.0061828 -0.0026567 -0.0069208 0.0093856 0.0049472 0.0085509 0.0047622 -0.0089539 0.00035342 -0.0092873 0.0056797 -0.0088891 -0.00066103 -0.0096208 -0.0034981 -0.00017846 0.0090224 0.0092663 -0.0069206 0.0098456 0.0086899 -0.0034358 0.0051514 0.0031778 0.0092049 0.0037 0.0070949 -0.0012587 0.0012356 0.0030241 0.0073142 0.002679 0.0064218 0.0080018 0.007468 0.0077769 -0.0059483 -0.0052978 0.0059765 0.0026466 0.004649 0.0015441 -0.0085413 0.002343 -0.0073332 -0.001469 -0.0058763 -0.0088405 0.0072528 -0.0023432 -0.0077477 -0.00063671 -0.0079761 -0.0049479 -0.0015202 -0.010385 -0.0045794 -0.0043223 0.0010146 0.0059005 0.0053595 0.0021139 0.0016055 0.0080315 0.0070455 0.0067396 0.0029235 0.0068441 0.0057482 0.007314 0.0017618 0.0049376 0.0096585 0.0042028 -0.011284 -0.006178 -0.0034966 -0.004949 -0.0039856 0.0049031 -0.0043213 
global -0.0062796 -0.00078101 0.0034941 -3.0123e-05 0.0081121 0.00089334 -0.0095654 0.0062111 0.0076563 -0.0017577 -0.00054601 0.0016033 0.0057443 0.0096431 -0.0076848 -0.0070323 -1.1214e-05 -0.00321 0.00010436 -0.0098267 -0.0073975 -0.00028557 -0.0024696 0.0081626 -0.0090228 -0.0022293 -0.0093488 0.00081246 -0.0084728 0.0092491 0.0015576 0.0027425 0.0090197 -0.0044642 -0.00095651 -0.0038118 0.00076437 -0.0064847 -0.0085606 0.0098321 -0.0052626 -0.0036918 0.0087013 0.0015108 0.0016835 0.0001032 -0.004823 -0.0029864 -0.0012954 -0.0080004 -0.0010967 0.0016812 -0.00828 -0.00673 0.0087808 -0.0049145 0.0027617 0.0062543 0.0055477 -0.0061329 0.0076862 0.0014163 0.0073961 0.0044314 0.0072943 0.0036757 -0.0032886 -0.0018886 -0.0080109 -0.0083778 0.0066259 0.0098935 0.0015145 0.0096743 0.0030038 -0.0032833 -0.0046441 -0.00084123 0.0027883 -0.0090899 -0.0032127 0.0076875 -0.0078437 0.003736 -0.0057222 -0.0023453 -0.0029734 0.0061206 -0.0055358 0.00045665 0.0055574 -0.0061953 0.005073 0.0026484 -0.0078723 -0.010528 0.0055392 -0.0064196 0.0055989 0.00057725 
template -0.0080312 0.0078113 -0.001272 -0.0045985 -0.0090079 0.0076733 -0.00078613 0.0028601 0.0060306 0.011687 -0.010685 -0.0051229 0.0028177 -0.0090673 0.0078134 0.0078767 0.0098994 -0.0064335 -0.0020647 0.0057274 0.0083898 -0.0075232 -0.00022577 -0.0032512 -0.0087524 -0.0041316 0.0092064 -0.0037961 -0.00060276 0.0014277 0.0079417 0.0033229 -0.0077682 -0.00010308 0.00037957 -0.010146 0.0068162 0.005469 -0.0011387 -0.0058593 -0.003088 -0.0059519 -0.0016236 -0.0057988 -0.0065836 0.0079802 -0.00084451 -0.0060863 -0.007207 0.0083697 -0.010528 0.00087214 -0.00024924 0.0070664 -0.0079193 -0.0085631 -0.0036921 0.00052201 -0.0042651 0.0041823 -0.0078085 -0.0023504 0.0056191 -0.0073372 -0.0024093 0.0019768 0.0023853 -0.0062964 -0.0076302 -0.0016712 -0.0017405 0.010791 0.0057649 -0.0036491 0.0031085 0.0030005 0.0081642 -0.0026514 -0.00077229 -0.009305 0.00017932 0.0058565 -0.0030608 -0.0073611 0.0044253 -0.00081784 0.0036483 -0.0092338 -0.0088519 0.0046496 -0.0083046 0.006032 -0.0051286 0.006345 0.0074431 0.0043484 0.00070614 0.0023059 -0.0043558 0.0055262 
enum -0.0090047 0.002777 0.0019975 0.009558 0.0073864 0.00371 -0.0097361 0.0059289 -0.0014719 0.0046597 -0.008473 -0.0065672 0.0099007 0.0020812 -0.0092805 -0.0096898 0.0031878 0.0070044 -0.005387 0.002257 -0.0087884 -0.0062254 0.009195 -0.0062861 -0.0019608 0.0046699 0.0028701 -0.0073883 -0.0065998 0.0093768 -0.0002706 -0.0040314 0.008776 -0.0083254 0.0046426 0.0022847 -0.0018215 -0.0018592 -0.0024164 -0.0049615 0.0044526 0.003596 -0.0062147 -0.0019883 0.0043289 -0.00081518 0.004656 -9.4082e-05 0.00067455 -0.0065402 -0.0062569 0.00013972 -0.0082403 0.0050699 -0.0074725 -0.0004176 0.0028987 0.0069781 -0.0070557 -0.0044546 -0.0064949 -0.0039154 0.005126 0.0016273 0.0085432 0.0036778 0.0026467 -0.0076448 0.0048546 -0.0017551 0.0068307 0.0010816 -0.0041146 -0.0064609 -0.0046741 0.0098818 -0.0027083 -0.0034433 -0.0072549 0.0021487 -0.0090199 0.0064391 0.0086909 0.0063261 0.0084435 -0.0101 0.0076661 0.0027078 -4.2446e-05 -0.0054424 0.0051221 0.0093271 0.0029613 -0.003502 -0.0040817 -0.0011363 0.0097507 -0.0073698 -0.0010989 0.008951 
double -0.0085056 -0.0084356 -0.0089846 0.0042385 0.0066713 0.0083067 -0.0069929 0.0069747 -2.2183e-05 0.0022837 -0.0011841 0.0085728 -0.0051348 -0.002391 -0.0018185 0.0020986 0.0061777 0.0075092 -0.0018939 -0.010014 -0.0094712 0.0010713 0.0070878 0.0061544 -0.0076964 -0.0098981 -0.0037266 0.0076068 -0.004686 0.0022708 -0.0040444 0.0071106 -0.0044135 -0.0017297 -0.0046506 0.0067826 0.0041957 -0.0027156 -0.0010437 0.0073726 0.0049085 0.0033208 0.00033105 -0.0033921 0.0049456 -0.006133 0.0042917 -0.0073278 0.0043673 0.010899 0.0059253 0.010817 -0.0049248 0.0073926 -0.0039379 -0.010462 -0.0029661 -0.0091698 -0.002916 -0.0054547 -0.0041852 -0.0012963 0.0037675 -0.0031474 0.0026164 -0.0073454 0.0045765 0.0028417 -0.0065006 -0.0042831 0.0058963 -0.0015558 -0.0042977 0.0044842 0.0056598 -0.0059871 0.0063213 -0.0062585 0.0034553 0.0058199 -0.0082723 0.0066705 -0.0030318 0.0017111 -0.00045834 -0.0053379 -0.0089575 -0.0069171 -0.0034487 0.0017979 0.004667 -0.0088149 0.0072323 0.0072877 0.0096396 -0.0027773 -0.0074201 -0.0081532 0.0065306 0.0073951 
except 0.0081713 -0.0074219 0.011417 0.0088275 -0.0076739 -0.0072918 -0.0086608 0.0072447 -0.010596 -0.010041 0.0096039 -0.0016676 -0.0092775 -0.011294 0.010493 0.0047208 -0.003683 -0.0095041 0.0078979 -0.0061019 0.0066726 -0.0020442 0.00030024 0.00054873 -0.0033042 -0.00095989 0.0086923 0.00029213 -0.0041379 0.0019494 -0.0060977 -0.00086746 -0.0056092 -0.0046949 -0.002358 -0.0085165 -0.0084977 0.0079107 3.3022e-05 0.0064874 -0.0025203 -0.010597 0.0025174 -0.0081825 -0.0064771 -0.00024528 -0.00067243 0.0040783 0.0075942 -0.0047051 -0.0014364 -0.0064541 0.0031543 0.0067791 0.0030738 -0.0016023 -8.4685e-05 -0.0090413 -0.010133 -0.0025042 0.01168 -0.0074169 -0.0014056 -0.0025611 -0.0044779 0.0072602 0.012775 -0.0064942 0.0014001 -0.001739 0.013283 0.0035811 0.0046399 -0.00084311 -0.0036382 -0.00257 -0.015989 -0.009963 0.0057406 -0.0054104 -0.0070202 -0.01023 -0.01245 0.010395 0.0044253 -0.00083044 -0.0084236 0.0067822 0.010023 0.000725 -0.0097153 0.00097354 -0.012888 0.0075563 0.0048169 0.0021315 -0.0016194 0.000613 -0.0090961 0.0023593 
elif -9.9144e-05 0.0037661 0.0057714 -0.0024614 -0.0012544 -0.004133 -0.0073072 0.0099057 -0.0048449 -0.0045958 -0.0072854 0.0017725 0.0013622 -0.0023107 -0.0074999 1.4141e-05 0.0095882 -0.006927 -0.0036703 -0.0016829 0.0078067 -0.0094991 -0.007769 -0.00015519 0.0080999 -0.003158 -0.0040801 -0.0059654 0.0092567 0.0076411 -0.0042515 -0.00062829 0.0047488 -0.0019104 0.006558 -0.0030889 -0.0045814 0.00042272 -0.00056985 -0.008192 -0.0025926 -0.0091261 -2.4563e-05 -0.0024188 0.0091096 0.0030875 0.0085723 0.00014513 0.0084307 -0.0072384 0.0064404 0.0011343 -0.0080731 -0.0033474 -0.00060867 0.0052563 0.004972 0.0030458 -0.0058143 -0.0031012 -0.00082316 -0.003683 0.0051056 0.0030389 0.0080448 0.0030469 0.0033428 -0.0072193 0.00010231 0.0065449 0.001592 0.0057472 -0.00054435 0.00048068 -0.00097175 0.0084502 -0.0010814 0.006146 -0.0046263 -0.00073283 0.0036633 -0.0061513 0.0027981 0.0046799 -0.0061257 0.010744 0.0012838 0.0027973 -0.0063148 0.0038942 0.0049753 -0.0032969 0.0070576 -0.0085969 0.0075287 0.010194 0.008064 -0.0069675 0.00051908 0.0062087 
typedef 0.0028863 0.0027223 -0.0048631 0.0032431 0.00021196 0.0092471 -0.009064 -0.00037237 -0.0065888 0.0092685 -0.0082244 -0.0053489 -0.0040014 0.0035821 0.0026199 -0.0016893 0.0015379 0.0030345 -0.010344 0.0066475 -0.006114 -0.0012499 -0.0068944 -0.0031183 0.0011671 -0.0065072 0.0098811 -0.0087945 -0.011119 0.00054292 0.0012881 -0.0012611 -0.0054159 -0.0025972 0.0018062 0.0064301 0.0010221 -0.0069246 0.0094273 -0.0043431 0.0028974 0.011324 -0.0020181 -0.0075775 0.00024562 0.0051414 -0.0020976 0.0078356 0.006571 0.0033366 0.0077757 -0.0059004 -0.00087925 0.010222 0.0037641 -0.0034018 -0.00075277 -0.0021816 0.0067193 0.00043053 0.0025188 -0.00059584 -0.0074942 -0.0044242 0.00043999 -0.0099526 -0.0091534 0.010127 0.003814 0.0051551 -6.051e-06 0.011077 0.00065378 -0.0049215 -0.010467 -0.0015205 -0.0017613 -0.0047223 0.0070663 0.0044097 0.0058833 0.0064949 -0.0034293 -0.0048222 -0.0037736 0.0065075 -0.0080767 0.0060541 -0.0024427 -0.0063938 0.00025577 0.0087687 0.0045141 -0.010158 -0.005815 -0.0044031 0.0038634 -0.0058913 -0.0079097 -0.0022439 
float -0.001364 -0.0066273 -0.0025659 0.0036438 -0.0019515 -0.00022795 0.0091427 -0.00064676 -0.010557 0.0013262 -0.0020555 0.0039359 0.001626 -0.0081907 0.0058924 -0.0080325 0.001235 -0.002625 -0.0081793 -0.0084979 -0.0064131 -0.0060634 -0.0021778 0.0041333 -0.0074697 -0.0024365 -0.00032099 -0.007549 -0.0054003 -0.003598 -0.0059286 -0.005838 -0.0053768 -0.0044782 0.010711 -0.0039284 -0.0088906 0.0019772 0.0021547 0.00012348 -0.0011046 0.0055649 -0.0074619 -0.00078015 -0.0092515 0.0087262 -0.0010152 0.0017347 0.0051792 9.1368e-05 -0.00094562 -0.00085951 8.3321e-05 0.0035289 -0.0044692 9.9235e-05 -0.0014291 0.0018331 -0.0032216 0.0098152 -0.0086516 0.004221 -0.0065946 -0.0066986 -0.0032773 0.001973 0.0066172 -0.00094486 0.004732 -0.0047894 0.0095854 -0.004478 0.007916 -0.00080116 -0.0051694 0.0015003 -0.0067114 -0.0025288 0.0071378 0.0094428 -0.0025186 0.0096308 -0.0093841 0.010329 0.0059438 -0.0049237 -0.0035252 0.0048912 -0.006201 -0.0028786 0.0072979 -0.00046947 0.0076186 -0.0069957 0.0014328 -0.0016216 -0.0029908 -0.0046474 -0.0010225 -0.0024647 
raise -0.0044124 0.0080066 0.01093 0.0018556 0.0084399 -0.0012408 0.0074053 0.0019972 -0.0025904 -0.013366 -0.0047831 -0.0050477 0.0057935 -0.010633 -0.0038918 0.0021409 0.0058684 0.0075116 0.0055618 -0.0067158 0.0038553 -0.00053651 -0.0045116 -0.0027056 0.007149 0.0023517 0.0072904 -0.0022205 0.012077 -0.0032808 0.0040746 -0.0044391 0.0049714 0.0071793 0.0056403 0.0062635 0.0013601 0.01299 -0.0026134 -0.0054372 -0.0039281 -0.013302 0.0067034 -0.001441 0.0010514 -5.0492e-05 -0.011852 0.0075689 0.0071476 0.0018458 0.010305 -0.0042264 0.010209 -0.0016108 0.0060345 -0.0047908 -0.0004543 0.0057812 0.0037046 0.0024382 0.0064028 0.0058838 -0.0095283 -0.009639 -0.0029439 -0.0036314 0.013693 -0.0011184 -0.0058753 -0.0056639 8.6184e-05 0.0053643 -0.0058317 0.0011687 -0.0052833 0.0068925 0.00096312 -0.0014333 0.010325 -0.0072161 0.0064067 -0.002193 -0.011639 0.010822 7.794e-05 -0.0040082 -0.0057321 0.0036562 0.0062479 0.0052744 -0.0075767 0.0038612 -0.0061698 0.0077019 0.0087853 0.0034332 0.0074101 0.0042791 -0.0018184 -0.0059019 
private 0.0019405 0.0084863 0.0036892 -0.0010656 -0.0093039 -0.0055152 -0.0052221 0.0039125 0.0034847 0.003906 -0.0031133 -0.0071431 0.0020366 -0.0008142 -0.00042089 -0.0017129 -0.0084907 -0.0016845 0.0064757 0.0083175 0.0062477 0.00084091 -0.0063751 -0.0071541 -0.0072264 0.0024965 0.0079338 -0.0021482 0.00047016 0.0047036 0.0061524 0.0055938 0.00057075 -0.0023059 0.0051391 -0.0085341 -0.0096307 -0.0010946 0.0023393 -0.007613 -0.0023765 3.9992e-05 -0.0095331 -0.0063108 0.0057772 0.0086184 0.00057115 -0.007556 0.0059502 0.0030641 -0.0028407 0.0059027 -0.0038019 -0.0082632 0.0072055 0.0072808 -0.0079032 0.0084008 -0.003195 0.0016611 -0.0082801 0.010226 0.0030812 0.0092831 -0.001001 0.0062357 0.0030403 -0.009288 -0.0012369 0.0053801 0.005871 0.0067948 0.0079688 0.0077698 -0.0057926 0.0094272 0.0088519 -0.0067903 0.0058318 0.00093349 -0.0034782 -0.008784 0.0063893 0.0039339 -0.0013663 0.0042883 -0.0067447 -0.0070144 -0.0048705 0.0021429 -0.0084608 -0.0047968 0.0059044 -0.0022879 0.001922 -0.002195 -0.0063443 -0.0057347 -0.0050678 -0.0075011 
lambda -0.0091824 0.0095784 -0.0023125 -0.0064836 -0.0069457 -0.0075992 -0.0017489 -0.0013463 -0.0062399 -0.0096657 -0.0017643 0.0070821 -0.00065182 0.00040419 -0.00034443 -0.0069737 -0.0029213 -0.0062548 -0.0071399 -0.0048172 -0.0060368 -0.0056437 0.0074634 0.0093337 -0.010061 -0.007648 -0.0061313 -0.0073261 -0.0029703 0.0043026 0.0064798 -0.0047722 -0.0067032 -0.0018311 0.0057931 -0.0089349 -0.00061543 0.0054648 -0.0074736 0.0097328 0.0074336 -0.0062184 0.009029 -0.00024237 -0.0016369 -0.0042515 -0.0031603 0.0090876 0.0058126 -0.0096742 -0.0031962 -0.00076394 -0.0043181 -0.0015092 0.008768 0.0067016 0.0058129 0.0095647 0.0061178 -0.0012909 -0.0040781 -0.01025 0.0025377 -0.0050324 -0.0086794 0.00011489 -0.0071948 -0.0023829 -0.0098306 0.0098401 -0.0043799 -0.0052809 0.0089861 0.001183 -0.0030914 -0.00025561 -0.0052878 -0.00070034 0.0031607 0.00752 0.0072012 0.0004947 0.0030774 0.0066558 -0.008596 0.0019404 0.0034082 0.0033179 -0.0080972 0.0011136 -0.00033188 0.0022269 -0.0095041 0.00023215 0.0028376 -0.001622 -0.0071472 0.0064811 -0.0045404 -0.007639 
virtual 0.0043483 0.0035603 0.0081232 -0.0022368 0.0080938 0.008684 0.00052511 0.0027696 -0.00096946 0.0069604 0.0096785 0.0051481 0.0066235 0.0016879 -0.0021914 -0.0096088 -0.0036179 -0.0022016 0.0092453 -0.0088432 0.0089694 -0.0066115 0.0022851 0.0036701 0.0041534 0.00027594 -0.0039616 -0.0022007 -0.0056737 -0.0020583 -0.010239 0.0018937 0.00012074 0.0081548 -0.0069161 0.0080246 0.0061698 -0.0011976 -0.0097436 0.0081058 0.0017626 -0.0034742 -0.0055502 0.0039186 0.010092 -0.005079 0.010169 -0.0026116 -0.0010678 0.0096447 0.0017057 0.0055757 -0.0092319 -0.0074337 -0.0042349 -0.007484 0.0062364 0.0055389 0.0022049 0.0029921 -0.0032172 0.0056318 -0.0038571 0.0097958 0.0063812 0.0089015 0.009123 -0.0052914 -0.00039328 -0.0033939 0.0071422 0.0043144 -0.0068234 0.0019651 -0.0065165 0.0017246 -0.0048393 0.006188 0.0075476 0.00079234 -0.0087106 -0.0024871 0.001605 -0.0039683 -0.0047813 0.0023763 -0.0051397 -0.00072696 0.0011987 0.0015148 0.0037156 0.0076234 0.0001815 0.0036246 0.0068407 -0.0016712 -0.0066147 0.0093914 0.00057803 0.0066194 
